digraph Tree {
node [shape=box, style="filled, rounded", color="black", fontname="helvetica"] ;
edge [fontname="helvetica"] ;
0 [label="node #0\nlead_time <= 151.5\ngini = 0.453\nsamples = 29550\nvalue = [10256, 19294]\nclass = Yes", fillcolor="#a2d1f3"] ;
1 [label="node #1\nno_of_special_requests <= 0.5\ngini = 0.375\nsamples = 23394\nvalue = [5840, 17554]\nclass = Yes", fillcolor="#7bbeee"] ;
0 -> 1 [labeldistance=2.5, labelangle=45, headlabel="True"] ;
2 [label="node #2\nmarket_segment_type_Online <= 0.5\ngini = 0.457\nsamples = 12273\nvalue = [4340.0, 7933.0]\nclass = Yes", fillcolor="#a5d3f3"] ;
1 -> 2 ;
3 [label="node #3\nlead_time <= 74.5\ngini = 0.257\nsamples = 5728\nvalue = [868.0, 4860.0]\nclass = Yes", fillcolor="#5cafea"] ;
2 -> 3 ;
4 [label="node #4\nno_of_weekend_nights <= 0.5\ngini = 0.124\nsamples = 3699\nvalue = [245.0, 3454.0]\nclass = Yes", fillcolor="#47a4e7"] ;
3 -> 4 ;
5 [label="node #5\nmarket_segment_type_Offline <= 0.5\ngini = 0.011\nsamples = 2166\nvalue = [12, 2154]\nclass = Yes", fillcolor="#3a9ee5"] ;
4 -> 5 ;
6 [label="node #6\nlead_time <= 9.0\ngini = 0.37\nsamples = 49\nvalue = [12, 37]\nclass = Yes", fillcolor="#79bded"] ;
5 -> 6 ;
7 [label="node #7\nlead_time <= 4.5\ngini = 0.255\nsamples = 40\nvalue = [6, 34]\nclass = Yes", fillcolor="#5caeea"] ;
6 -> 7 ;
8 [label="node #8\nlead_time <= 0.5\ngini = 0.305\nsamples = 32\nvalue = [6, 26]\nclass = Yes", fillcolor="#67b4eb"] ;
7 -> 8 ;
9 [label="node #9\ngini = 0.0\nsamples = 4\nvalue = [0, 4]\nclass = Yes", fillcolor="#399de5"] ;
8 -> 9 ;
10 [label="node #10\nno_of_week_nights <= 1.5\ngini = 0.337\nsamples = 28\nvalue = [6, 22]\nclass = Yes", fillcolor="#6fb8ec"] ;
8 -> 10 ;
11 [label="node #11\nlead_time <= 1.5\ngini = 0.391\nsamples = 15\nvalue = [4, 11]\nclass = Yes", fillcolor="#81c1ee"] ;
10 -> 11 ;
12 [label="node #12\ngini = 0.5\nsamples = 4\nvalue = [2, 2]\nclass = No", fillcolor="#ffffff"] ;
11 -> 12 ;
13 [label="node #13\nlead_time <= 3.5\ngini = 0.298\nsamples = 11\nvalue = [2, 9]\nclass = Yes", fillcolor="#65b3eb"] ;
11 -> 13 ;
14 [label="node #14\nlead_time <= 2.5\ngini = 0.198\nsamples = 9\nvalue = [1, 8]\nclass = Yes", fillcolor="#52a9e8"] ;
13 -> 14 ;
15 [label="node #15\ngini = 0.0\nsamples = 4\nvalue = [0, 4]\nclass = Yes", fillcolor="#399de5"] ;
14 -> 15 ;
16 [label="node #16\navg_price_per_room <= 102.5\ngini = 0.32\nsamples = 5\nvalue = [1, 4]\nclass = Yes", fillcolor="#6ab6ec"] ;
14 -> 16 ;
17 [label="node #17\ngini = 0.375\nsamples = 4\nvalue = [1, 3]\nclass = Yes", fillcolor="#7bbeee"] ;
16 -> 17 ;
18 [label="node #18\ngini = 0.0\nsamples = 1\nvalue = [0, 1]\nclass = Yes", fillcolor="#399de5"] ;
16 -> 18 ;
19 [label="node #19\nroom_type_reserved_Room_Type 4 <= 0.5\ngini = 0.5\nsamples = 2\nvalue = [1, 1]\nclass = No", fillcolor="#ffffff"] ;
13 -> 19 ;
20 [label="node #20\ngini = 0.0\nsamples = 1\nvalue = [0, 1]\nclass = Yes", fillcolor="#399de5"] ;
19 -> 20 ;
21 [label="node #21\ngini = 0.0\nsamples = 1\nvalue = [1, 0]\nclass = No", fillcolor="#e58139"] ;
19 -> 21 ;
22 [label="node #22\nlead_time <= 2.5\ngini = 0.26\nsamples = 13\nvalue = [2, 11]\nclass = Yes", fillcolor="#5dafea"] ;
10 -> 22 ;
23 [label="node #23\nlead_time <= 1.5\ngini = 0.346\nsamples = 9\nvalue = [2, 7]\nclass = Yes", fillcolor="#72b9ec"] ;
22 -> 23 ;
24 [label="node #24\ngini = 0.0\nsamples = 3\nvalue = [0, 3]\nclass = Yes", fillcolor="#399de5"] ;
23 -> 24 ;
25 [label="node #25\nno_of_adults <= 1.5\ngini = 0.444\nsamples = 6\nvalue = [2, 4]\nclass = Yes", fillcolor="#9ccef2"] ;
23 -> 25 ;
26 [label="node #26\navg_price_per_room <= 102.0\ngini = 0.48\nsamples = 5\nvalue = [2, 3]\nclass = Yes", fillcolor="#bddef6"] ;
25 -> 26 ;
27 [label="node #27\ngini = 0.444\nsamples = 3\nvalue = [1, 2]\nclass = Yes", fillcolor="#9ccef2"] ;
26 -> 27 ;
28 [label="node #28\ngini = 0.5\nsamples = 2\nvalue = [1, 1]\nclass = No", fillcolor="#ffffff"] ;
26 -> 28 ;
29 [label="node #29\ngini = 0.0\nsamples = 1\nvalue = [0, 1]\nclass = Yes", fillcolor="#399de5"] ;
25 -> 29 ;
30 [label="node #30\ngini = 0.0\nsamples = 4\nvalue = [0, 4]\nclass = Yes", fillcolor="#399de5"] ;
22 -> 30 ;
31 [label="node #31\ngini = 0.0\nsamples = 8\nvalue = [0, 8]\nclass = Yes", fillcolor="#399de5"] ;
7 -> 31 ;
32 [label="node #32\navg_price_per_room <= 102.5\ngini = 0.444\nsamples = 9\nvalue = [6, 3]\nclass = No", fillcolor="#f2c09c"] ;
6 -> 32 ;
33 [label="node #33\ngini = 0.0\nsamples = 3\nvalue = [0, 3]\nclass = Yes", fillcolor="#399de5"] ;
32 -> 33 ;
34 [label="node #34\ngini = 0.0\nsamples = 6\nvalue = [6, 0]\nclass = No", fillcolor="#e58139"] ;
32 -> 34 ;
35 [label="node #35\ngini = 0.0\nsamples = 2117\nvalue = [0, 2117]\nclass = Yes", fillcolor="#399de5"] ;
5 -> 35 ;
36 [label="node #36\nlead_time <= 68.5\ngini = 0.258\nsamples = 1533\nvalue = [233, 1300]\nclass = Yes", fillcolor="#5cafea"] ;
4 -> 36 ;
37 [label="node #37\nlead_time <= 1.5\ngini = 0.208\nsamples = 1425\nvalue = [168, 1257]\nclass = Yes", fillcolor="#53aae8"] ;
36 -> 37 ;
38 [label="node #38\navg_price_per_room <= 61.0\ngini = 0.494\nsamples = 119\nvalue = [53, 66]\nclass = Yes", fillcolor="#d8ecfa"] ;
37 -> 38 ;
39 [label="node #39\navg_price_per_room <= 59.0\ngini = 0.194\nsamples = 55\nvalue = [49, 6]\nclass = No", fillcolor="#e89051"] ;
38 -> 39 ;
40 [label="node #40\ngini = 0.0\nsamples = 6\nvalue = [0, 6]\nclass = Yes", fillcolor="#399de5"] ;
39 -> 40 ;
41 [label="node #41\ngini = 0.0\nsamples = 49\nvalue = [49, 0]\nclass = No", fillcolor="#e58139"] ;
39 -> 41 ;
42 [label="node #42\nno_of_week_nights <= 5.5\ngini = 0.117\nsamples = 64\nvalue = [4, 60]\nclass = Yes", fillcolor="#46a4e7"] ;
38 -> 42 ;
43 [label="node #43\navg_price_per_room <= 94.75\ngini = 0.091\nsamples = 63\nvalue = [3, 60]\nclass = Yes", fillcolor="#43a2e6"] ;
42 -> 43 ;
44 [label="node #44\ngini = 0.0\nsamples = 40\nvalue = [0, 40]\nclass = Yes", fillcolor="#399de5"] ;
43 -> 44 ;
45 [label="node #45\navg_price_per_room <= 105.2\ngini = 0.227\nsamples = 23\nvalue = [3, 20]\nclass = Yes", fillcolor="#57ace9"] ;
43 -> 45 ;
46 [label="node #46\nno_of_weekend_nights <= 1.5\ngini = 0.444\nsamples = 9\nvalue = [3, 6]\nclass = Yes", fillcolor="#9ccef2"] ;
45 -> 46 ;
47 [label="node #47\navg_price_per_room <= 95.5\ngini = 0.245\nsamples = 7\nvalue = [1, 6]\nclass = Yes", fillcolor="#5aade9"] ;
46 -> 47 ;
48 [label="node #48\ngini = 0.375\nsamples = 4\nvalue = [1, 3]\nclass = Yes", fillcolor="#7bbeee"] ;
47 -> 48 ;
49 [label="node #49\ngini = 0.0\nsamples = 3\nvalue = [0, 3]\nclass = Yes", fillcolor="#399de5"] ;
47 -> 49 ;
50 [label="node #50\ngini = 0.0\nsamples = 2\nvalue = [2, 0]\nclass = No", fillcolor="#e58139"] ;
46 -> 50 ;
51 [label="node #51\ngini = 0.0\nsamples = 14\nvalue = [0, 14]\nclass = Yes", fillcolor="#399de5"] ;
45 -> 51 ;
52 [label="node #52\ngini = 0.0\nsamples = 1\nvalue = [1, 0]\nclass = No", fillcolor="#e58139"] ;
42 -> 52 ;
53 [label="node #53\nlead_time <= 59.5\ngini = 0.161\nsamples = 1306\nvalue = [115, 1191]\nclass = Yes", fillcolor="#4ca6e8"] ;
37 -> 53 ;
54 [label="node #54\nmarket_segment_type_Offline <= 0.5\ngini = 0.135\nsamples = 1140\nvalue = [83, 1057]\nclass = Yes", fillcolor="#49a5e7"] ;
53 -> 54 ;
55 [label="node #55\nno_of_weekend_nights <= 1.5\ngini = 0.397\nsamples = 33\nvalue = [9, 24]\nclass = Yes", fillcolor="#83c2ef"] ;
54 -> 55 ;
56 [label="node #56\navg_price_per_room <= 87.0\ngini = 0.472\nsamples = 21\nvalue = [8, 13]\nclass = Yes", fillcolor="#b3d9f5"] ;
55 -> 56 ;
57 [label="node #57\ngini = 0.0\nsamples = 1\nvalue = [1, 0]\nclass = No", fillcolor="#e58139"] ;
56 -> 57 ;
58 [label="node #58\nno_of_week_nights <= 2.5\ngini = 0.455\nsamples = 20\nvalue = [7, 13]\nclass = Yes", fillcolor="#a4d2f3"] ;
56 -> 58 ;
59 [label="node #59\nlead_time <= 4.5\ngini = 0.5\nsamples = 12\nvalue = [6, 6]\nclass = No", fillcolor="#ffffff"] ;
58 -> 59 ;
60 [label="node #60\nlead_time <= 3.5\ngini = 0.375\nsamples = 8\nvalue = [2, 6]\nclass = Yes", fillcolor="#7bbeee"] ;
59 -> 60 ;
61 [label="node #61\nno_of_week_nights <= 1.0\ngini = 0.5\nsamples = 4\nvalue = [2, 2]\nclass = No", fillcolor="#ffffff"] ;
60 -> 61 ;
62 [label="node #62\ngini = 0.5\nsamples = 2\nvalue = [1, 1]\nclass = No", fillcolor="#ffffff"] ;
61 -> 62 ;
63 [label="node #63\ngini = 0.5\nsamples = 2\nvalue = [1, 1]\nclass = No", fillcolor="#ffffff"] ;
61 -> 63 ;
64 [label="node #64\ngini = 0.0\nsamples = 4\nvalue = [0, 4]\nclass = Yes", fillcolor="#399de5"] ;
60 -> 64 ;
65 [label="node #65\ngini = 0.0\nsamples = 4\nvalue = [4, 0]\nclass = No", fillcolor="#e58139"] ;
59 -> 65 ;
66 [label="node #66\nroom_type_reserved_Room_Type 4 <= 0.5\ngini = 0.219\nsamples = 8\nvalue = [1, 7]\nclass = Yes", fillcolor="#55abe9"] ;
58 -> 66 ;
67 [label="node #67\ngini = 0.375\nsamples = 4\nvalue = [1, 3]\nclass = Yes", fillcolor="#7bbeee"] ;
66 -> 67 ;
68 [label="node #68\ngini = 0.0\nsamples = 4\nvalue = [0, 4]\nclass = Yes", fillcolor="#399de5"] ;
66 -> 68 ;
69 [label="node #69\nlead_time <= 20.0\ngini = 0.153\nsamples = 12\nvalue = [1, 11]\nclass = Yes", fillcolor="#4ba6e7"] ;
55 -> 69 ;
70 [label="node #70\ngini = 0.0\nsamples = 11\nvalue = [0, 11]\nclass = Yes", fillcolor="#399de5"] ;
69 -> 70 ;
71 [label="node #71\ngini = 0.0\nsamples = 1\nvalue = [1, 0]\nclass = No", fillcolor="#e58139"] ;
69 -> 71 ;
72 [label="node #72\navg_price_per_room <= 31.3\ngini = 0.125\nsamples = 1107\nvalue = [74, 1033]\nclass = Yes", fillcolor="#47a4e7"] ;
54 -> 72 ;
73 [label="node #73\ngini = 0.0\nsamples = 1\nvalue = [1, 0]\nclass = No", fillcolor="#e58139"] ;
72 -> 73 ;
74 [label="node #74\nno_of_week_nights <= 1.5\ngini = 0.123\nsamples = 1106\nvalue = [73, 1033]\nclass = Yes", fillcolor="#47a4e7"] ;
72 -> 74 ;
75 [label="node #75\navg_price_per_room <= 117.575\ngini = 0.173\nsamples = 417\nvalue = [40, 377]\nclass = Yes", fillcolor="#4ea7e8"] ;
74 -> 75 ;
76 [label="node #76\nlead_time <= 2.5\ngini = 0.157\nsamples = 396\nvalue = [34, 362]\nclass = Yes", fillcolor="#4ca6e7"] ;
75 -> 76 ;
77 [label="node #77\ntype_of_meal_plan <= 1.5\ngini = 0.426\nsamples = 13\nvalue = [4, 9]\nclass = Yes", fillcolor="#91c9f1"] ;
76 -> 77 ;
78 [label="node #78\nno_of_children <= 0.5\ngini = 0.198\nsamples = 9\nvalue = [1, 8]\nclass = Yes", fillcolor="#52a9e8"] ;
77 -> 78 ;
79 [label="node #79\ngini = 0.0\nsamples = 8\nvalue = [0, 8]\nclass = Yes", fillcolor="#399de5"] ;
78 -> 79 ;
80 [label="node #80\ngini = 0.0\nsamples = 1\nvalue = [1, 0]\nclass = No", fillcolor="#e58139"] ;
78 -> 80 ;
81 [label="node #81\nno_of_adults <= 1.5\ngini = 0.375\nsamples = 4\nvalue = [3, 1]\nclass = No", fillcolor="#eeab7b"] ;
77 -> 81 ;
82 [label="node #82\ngini = 0.0\nsamples = 1\nvalue = [0, 1]\nclass = Yes", fillcolor="#399de5"] ;
81 -> 82 ;
83 [label="node #83\ngini = 0.0\nsamples = 3\nvalue = [3, 0]\nclass = No", fillcolor="#e58139"] ;
81 -> 83 ;
84 [label="node #84\nno_of_weekend_nights <= 1.5\ngini = 0.144\nsamples = 383\nvalue = [30, 353]\nclass = Yes", fillcolor="#4aa5e7"] ;
76 -> 84 ;
85 [label="node #85\navg_price_per_room <= 51.5\ngini = 0.213\nsamples = 165\nvalue = [20, 145]\nclass = Yes", fillcolor="#54abe9"] ;
84 -> 85 ;
86 [label="node #86\ngini = 0.0\nsamples = 4\nvalue = [4, 0]\nclass = No", fillcolor="#e58139"] ;
85 -> 86 ;
87 [label="node #87\nlead_time <= 4.5\ngini = 0.179\nsamples = 161\nvalue = [16.0, 145.0]\nclass = Yes", fillcolor="#4fa8e8"] ;
85 -> 87 ;
88 [label="node #88\nlead_time <= 3.5\ngini = 0.305\nsamples = 32\nvalue = [6, 26]\nclass = Yes", fillcolor="#67b4eb"] ;
87 -> 88 ;
89 [label="node #89\ngini = 0.0\nsamples = 14\nvalue = [0, 14]\nclass = Yes", fillcolor="#399de5"] ;
88 -> 89 ;
90 [label="node #90\navg_price_per_room <= 97.05\ngini = 0.444\nsamples = 18\nvalue = [6, 12]\nclass = Yes", fillcolor="#9ccef2"] ;
88 -> 90 ;
91 [label="node #91\navg_price_per_room <= 75.75\ngini = 0.278\nsamples = 12\nvalue = [2, 10]\nclass = Yes", fillcolor="#61b1ea"] ;
90 -> 91 ;
92 [label="node #92\nno_of_adults <= 1.5\ngini = 0.444\nsamples = 3\nvalue = [2, 1]\nclass = No", fillcolor="#f2c09c"] ;
91 -> 92 ;
93 [label="node #93\ngini = 0.0\nsamples = 1\nvalue = [0, 1]\nclass = Yes", fillcolor="#399de5"] ;
92 -> 93 ;
94 [label="node #94\ngini = 0.0\nsamples = 2\nvalue = [2, 0]\nclass = No", fillcolor="#e58139"] ;
92 -> 94 ;
95 [label="node #95\ngini = 0.0\nsamples = 9\nvalue = [0, 9]\nclass = Yes", fillcolor="#399de5"] ;
91 -> 95 ;
96 [label="node #96\navg_price_per_room <= 99.05\ngini = 0.444\nsamples = 6\nvalue = [4, 2]\nclass = No", fillcolor="#f2c09c"] ;
90 -> 96 ;
97 [label="node #97\ngini = 0.0\nsamples = 4\nvalue = [4, 0]\nclass = No", fillcolor="#e58139"] ;
96 -> 97 ;
98 [label="node #98\ngini = 0.0\nsamples = 2\nvalue = [0, 2]\nclass = Yes", fillcolor="#399de5"] ;
96 -> 98 ;
99 [label="node #99\nlead_time <= 27.5\ngini = 0.143\nsamples = 129\nvalue = [10, 119]\nclass = Yes", fillcolor="#4aa5e7"] ;
87 -> 99 ;
100 [label="node #100\navg_price_per_room <= 82.5\ngini = 0.061\nsamples = 64\nvalue = [2, 62]\nclass = Yes", fillcolor="#3fa0e6"] ;
99 -> 100 ;
101 [label="node #101\ngini = 0.0\nsamples = 37\nvalue = [0, 37]\nclass = Yes", fillcolor="#399de5"] ;
100 -> 101 ;
102 [label="node #102\nno_of_week_nights <= 0.5\ngini = 0.137\nsamples = 27\nvalue = [2, 25]\nclass = Yes", fillcolor="#49a5e7"] ;
100 -> 102 ;
103 [label="node #103\nlead_time <= 12.5\ngini = 0.298\nsamples = 11\nvalue = [2, 9]\nclass = Yes", fillcolor="#65b3eb"] ;
102 -> 103 ;
104 [label="node #104\nlead_time <= 8.5\ngini = 0.48\nsamples = 5\nvalue = [2, 3]\nclass = Yes", fillcolor="#bddef6"] ;
103 -> 104 ;
105 [label="node #105\ngini = 0.0\nsamples = 3\nvalue = [0, 3]\nclass = Yes", fillcolor="#399de5"] ;
104 -> 105 ;
106 [label="node #106\ngini = 0.0\nsamples = 2\nvalue = [2, 0]\nclass = No", fillcolor="#e58139"] ;
104 -> 106 ;
107 [label="node #107\ngini = 0.0\nsamples = 6\nvalue = [0, 6]\nclass = Yes", fillcolor="#399de5"] ;
103 -> 107 ;
108 [label="node #108\ngini = 0.0\nsamples = 16\nvalue = [0, 16]\nclass = Yes", fillcolor="#399de5"] ;
102 -> 108 ;
109 [label="node #109\nlead_time <= 30.0\ngini = 0.216\nsamples = 65\nvalue = [8, 57]\nclass = Yes", fillcolor="#55abe9"] ;
99 -> 109 ;
110 [label="node #110\navg_price_per_room <= 90.0\ngini = 0.375\nsamples = 4\nvalue = [3, 1]\nclass = No", fillcolor="#eeab7b"] ;
109 -> 110 ;
111 [label="node #111\ngini = 0.0\nsamples = 3\nvalue = [3, 0]\nclass = No", fillcolor="#e58139"] ;
110 -> 111 ;
112 [label="node #112\ngini = 0.0\nsamples = 1\nvalue = [0, 1]\nclass = Yes", fillcolor="#399de5"] ;
110 -> 112 ;
113 [label="node #113\nno_of_adults <= 1.5\ngini = 0.15\nsamples = 61\nvalue = [5, 56]\nclass = Yes", fillcolor="#4ba6e7"] ;
109 -> 113 ;
114 [label="node #114\navg_price_per_room <= 83.0\ngini = 0.375\nsamples = 16\nvalue = [4, 12]\nclass = Yes", fillcolor="#7bbeee"] ;
113 -> 114 ;
115 [label="node #115\navg_price_per_room <= 65.2\ngini = 0.5\nsamples = 8\nvalue = [4, 4]\nclass = No", fillcolor="#ffffff"] ;
114 -> 115 ;
116 [label="node #116\ngini = 0.0\nsamples = 2\nvalue = [0, 2]\nclass = Yes", fillcolor="#399de5"] ;
115 -> 116 ;
117 [label="node #117\nlead_time <= 34.5\ngini = 0.444\nsamples = 6\nvalue = [4, 2]\nclass = No", fillcolor="#f2c09c"] ;
115 -> 117 ;
118 [label="node #118\ngini = 0.0\nsamples = 1\nvalue = [0, 1]\nclass = Yes", fillcolor="#399de5"] ;
117 -> 118 ;
119 [label="node #119\nlead_time <= 44.5\ngini = 0.32\nsamples = 5\nvalue = [4, 1]\nclass = No", fillcolor="#eca06a"] ;
117 -> 119 ;
120 [label="node #120\ngini = 0.0\nsamples = 4\nvalue = [4, 0]\nclass = No", fillcolor="#e58139"] ;
119 -> 120 ;
121 [label="node #121\ngini = 0.0\nsamples = 1\nvalue = [0, 1]\nclass = Yes", fillcolor="#399de5"] ;
119 -> 121 ;
122 [label="node #122\ngini = 0.0\nsamples = 8\nvalue = [0, 8]\nclass = Yes", fillcolor="#399de5"] ;
114 -> 122 ;
123 [label="node #123\nroom_type_reserved_Room_Type 4 <= 0.5\ngini = 0.043\nsamples = 45\nvalue = [1, 44]\nclass = Yes", fillcolor="#3d9fe6"] ;
113 -> 123 ;
124 [label="node #124\ngini = 0.0\nsamples = 34\nvalue = [0, 34]\nclass = Yes", fillcolor="#399de5"] ;
123 -> 124 ;
125 [label="node #125\nlead_time <= 45.5\ngini = 0.165\nsamples = 11\nvalue = [1, 10]\nclass = Yes", fillcolor="#4da7e8"] ;
123 -> 125 ;
126 [label="node #126\ngini = 0.18\nsamples = 10\nvalue = [1, 9]\nclass = Yes", fillcolor="#4fa8e8"] ;
125 -> 126 ;
127 [label="node #127\ngini = 0.0\nsamples = 1\nvalue = [0, 1]\nclass = Yes", fillcolor="#399de5"] ;
125 -> 127 ;
128 [label="node #128\nlead_time <= 30.5\ngini = 0.088\nsamples = 218\nvalue = [10, 208]\nclass = Yes", fillcolor="#43a2e6"] ;
84 -> 128 ;
129 [label="node #129\nroom_type_reserved_Room_Type 4 <= 0.5\ngini = 0.015\nsamples = 135\nvalue = [1, 134]\nclass = Yes", fillcolor="#3a9ee5"] ;
128 -> 129 ;
130 [label="node #130\ngini = 0.0\nsamples = 124\nvalue = [0, 124]\nclass = Yes", fillcolor="#399de5"] ;
129 -> 130 ;
131 [label="node #131\navg_price_per_room <= 89.6\ngini = 0.165\nsamples = 11\nvalue = [1, 10]\nclass = Yes", fillcolor="#4da7e8"] ;
129 -> 131 ;
132 [label="node #132\ngini = 0.0\nsamples = 8\nvalue = [0, 8]\nclass = Yes", fillcolor="#399de5"] ;
131 -> 132 ;
133 [label="node #133\navg_price_per_room <= 99.5\ngini = 0.444\nsamples = 3\nvalue = [1, 2]\nclass = Yes", fillcolor="#9ccef2"] ;
131 -> 133 ;
134 [label="node #134\ngini = 0.0\nsamples = 1\nvalue = [1, 0]\nclass = No", fillcolor="#e58139"] ;
133 -> 134 ;
135 [label="node #135\ngini = 0.0\nsamples = 2\nvalue = [0, 2]\nclass = Yes", fillcolor="#399de5"] ;
133 -> 135 ;
136 [label="node #136\navg_price_per_room <= 76.77\ngini = 0.193\nsamples = 83\nvalue = [9, 74]\nclass = Yes", fillcolor="#51a9e8"] ;
128 -> 136 ;
137 [label="node #137\ngini = 0.0\nsamples = 43\nvalue = [0, 43]\nclass = Yes", fillcolor="#399de5"] ;
136 -> 137 ;
138 [label="node #138\navg_price_per_room <= 83.0\ngini = 0.349\nsamples = 40\nvalue = [9, 31]\nclass = Yes", fillcolor="#72b9ed"] ;
136 -> 138 ;
139 [label="node #139\nlead_time <= 56.0\ngini = 0.375\nsamples = 8\nvalue = [6, 2]\nclass = No", fillcolor="#eeab7b"] ;
138 -> 139 ;
140 [label="node #140\navg_price_per_room <= 79.02\ngini = 0.245\nsamples = 7\nvalue = [6, 1]\nclass = No", fillcolor="#e9965a"] ;
139 -> 140 ;
141 [label="node #141\ngini = 0.0\nsamples = 2\nvalue = [2, 0]\nclass = No", fillcolor="#e58139"] ;
140 -> 141 ;
142 [label="node #142\nlead_time <= 36.0\ngini = 0.32\nsamples = 5\nvalue = [4, 1]\nclass = No", fillcolor="#eca06a"] ;
140 -> 142 ;
143 [label="node #143\ngini = 0.0\nsamples = 1\nvalue = [1, 0]\nclass = No", fillcolor="#e58139"] ;
142 -> 143 ;
144 [label="node #144\ngini = 0.375\nsamples = 4\nvalue = [3, 1]\nclass = No", fillcolor="#eeab7b"] ;
142 -> 144 ;
145 [label="node #145\ngini = 0.0\nsamples = 1\nvalue = [0, 1]\nclass = Yes", fillcolor="#399de5"] ;
139 -> 145 ;
146 [label="node #146\nno_of_adults <= 2.5\ngini = 0.17\nsamples = 32\nvalue = [3, 29]\nclass = Yes", fillcolor="#4da7e8"] ;
138 -> 146 ;
147 [label="node #147\nno_of_week_nights <= 0.5\ngini = 0.124\nsamples = 30\nvalue = [2, 28]\nclass = Yes", fillcolor="#47a4e7"] ;
146 -> 147 ;
148 [label="node #148\nlead_time <= 42.0\ngini = 0.5\nsamples = 2\nvalue = [1, 1]\nclass = No", fillcolor="#ffffff"] ;
147 -> 148 ;
149 [label="node #149\ngini = 0.0\nsamples = 1\nvalue = [1, 0]\nclass = No", fillcolor="#e58139"] ;
148 -> 149 ;
150 [label="node #150\ngini = 0.0\nsamples = 1\nvalue = [0, 1]\nclass = Yes", fillcolor="#399de5"] ;
148 -> 150 ;
151 [label="node #151\nlead_time <= 31.5\ngini = 0.069\nsamples = 28\nvalue = [1, 27]\nclass = Yes", fillcolor="#40a1e6"] ;
147 -> 151 ;
152 [label="node #152\navg_price_per_room <= 85.25\ngini = 0.375\nsamples = 4\nvalue = [1, 3]\nclass = Yes", fillcolor="#7bbeee"] ;
151 -> 152 ;
153 [label="node #153\ngini = 0.0\nsamples = 2\nvalue = [0, 2]\nclass = Yes", fillcolor="#399de5"] ;
152 -> 153 ;
154 [label="node #154\nroom_type_reserved_Room_Type 4 <= 0.5\ngini = 0.5\nsamples = 2\nvalue = [1, 1]\nclass = No", fillcolor="#ffffff"] ;
152 -> 154 ;
155 [label="node #155\ngini = 0.0\nsamples = 1\nvalue = [1, 0]\nclass = No", fillcolor="#e58139"] ;
154 -> 155 ;
156 [label="node #156\ngini = 0.0\nsamples = 1\nvalue = [0, 1]\nclass = Yes", fillcolor="#399de5"] ;
154 -> 156 ;
157 [label="node #157\ngini = 0.0\nsamples = 24\nvalue = [0, 24]\nclass = Yes", fillcolor="#399de5"] ;
151 -> 157 ;
158 [label="node #158\nno_of_week_nights <= 0.5\ngini = 0.5\nsamples = 2\nvalue = [1, 1]\nclass = No", fillcolor="#ffffff"] ;
146 -> 158 ;
159 [label="node #159\ngini = 0.0\nsamples = 1\nvalue = [0, 1]\nclass = Yes", fillcolor="#399de5"] ;
158 -> 159 ;
160 [label="node #160\ngini = 0.0\nsamples = 1\nvalue = [1, 0]\nclass = No", fillcolor="#e58139"] ;
158 -> 160 ;
161 [label="node #161\navg_price_per_room <= 118.325\ngini = 0.408\nsamples = 21\nvalue = [6, 15]\nclass = Yes", fillcolor="#88c4ef"] ;
75 -> 161 ;
162 [label="node #162\ngini = 0.0\nsamples = 5\nvalue = [5, 0]\nclass = No", fillcolor="#e58139"] ;
161 -> 162 ;
163 [label="node #163\navg_price_per_room <= 135.575\ngini = 0.117\nsamples = 16\nvalue = [1, 15]\nclass = Yes", fillcolor="#46a4e7"] ;
161 -> 163 ;
164 [label="node #164\ngini = 0.0\nsamples = 12\nvalue = [0, 12]\nclass = Yes", fillcolor="#399de5"] ;
163 -> 164 ;
165 [label="node #165\navg_price_per_room <= 137.25\ngini = 0.375\nsamples = 4\nvalue = [1, 3]\nclass = Yes", fillcolor="#7bbeee"] ;
163 -> 165 ;
166 [label="node #166\ngini = 0.0\nsamples = 1\nvalue = [1, 0]\nclass = No", fillcolor="#e58139"] ;
165 -> 166 ;
167 [label="node #167\ngini = 0.0\nsamples = 3\nvalue = [0, 3]\nclass = Yes", fillcolor="#399de5"] ;
165 -> 167 ;
168 [label="node #168\navg_price_per_room <= 39.335\ngini = 0.091\nsamples = 689\nvalue = [33, 656]\nclass = Yes", fillcolor="#43a2e6"] ;
74 -> 168 ;
169 [label="node #169\nlead_time <= 14.5\ngini = 0.444\nsamples = 3\nvalue = [1, 2]\nclass = Yes", fillcolor="#9ccef2"] ;
168 -> 169 ;
170 [label="node #170\ngini = 0.0\nsamples = 1\nvalue = [1, 0]\nclass = No", fillcolor="#e58139"] ;
169 -> 170 ;
171 [label="node #171\ngini = 0.0\nsamples = 2\nvalue = [0, 2]\nclass = Yes", fillcolor="#399de5"] ;
169 -> 171 ;
172 [label="node #172\navg_price_per_room <= 62.9\ngini = 0.089\nsamples = 686\nvalue = [32, 654]\nclass = Yes", fillcolor="#43a2e6"] ;
168 -> 172 ;
173 [label="node #173\nno_of_adults <= 1.5\ngini = 0.029\nsamples = 134\nvalue = [2, 132]\nclass = Yes", fillcolor="#3c9ee5"] ;
172 -> 173 ;
174 [label="node #174\ntype_of_meal_plan <= 0.5\ngini = 0.198\nsamples = 18\nvalue = [2, 16]\nclass = Yes", fillcolor="#52a9e8"] ;
173 -> 174 ;
175 [label="node #175\ngini = 0.0\nsamples = 1\nvalue = [1, 0]\nclass = No", fillcolor="#e58139"] ;
174 -> 175 ;
176 [label="node #176\nlead_time <= 17.0\ngini = 0.111\nsamples = 17\nvalue = [1, 16]\nclass = Yes", fillcolor="#45a3e7"] ;
174 -> 176 ;
177 [label="node #177\ngini = 0.0\nsamples = 14\nvalue = [0, 14]\nclass = Yes", fillcolor="#399de5"] ;
176 -> 177 ;
178 [label="node #178\nno_of_weekend_nights <= 1.5\ngini = 0.444\nsamples = 3\nvalue = [1, 2]\nclass = Yes", fillcolor="#9ccef2"] ;
176 -> 178 ;
179 [label="node #179\ngini = 0.0\nsamples = 1\nvalue = [1, 0]\nclass = No", fillcolor="#e58139"] ;
178 -> 179 ;
180 [label="node #180\ngini = 0.0\nsamples = 2\nvalue = [0, 2]\nclass = Yes", fillcolor="#399de5"] ;
178 -> 180 ;
181 [label="node #181\ngini = 0.0\nsamples = 116\nvalue = [0, 116]\nclass = Yes", fillcolor="#399de5"] ;
173 -> 181 ;
182 [label="node #182\navg_price_per_room <= 63.165\ngini = 0.103\nsamples = 552\nvalue = [30, 522]\nclass = Yes", fillcolor="#44a3e6"] ;
172 -> 182 ;
183 [label="node #183\nlead_time <= 39.5\ngini = 0.375\nsamples = 8\nvalue = [2, 6]\nclass = Yes", fillcolor="#7bbeee"] ;
182 -> 183 ;
184 [label="node #184\nlead_time <= 33.0\ngini = 0.245\nsamples = 7\nvalue = [1, 6]\nclass = Yes", fillcolor="#5aade9"] ;
183 -> 184 ;
185 [label="node #185\ngini = 0.0\nsamples = 4\nvalue = [0, 4]\nclass = Yes", fillcolor="#399de5"] ;
184 -> 185 ;
186 [label="node #186\nno_of_week_nights <= 2.5\ngini = 0.444\nsamples = 3\nvalue = [1, 2]\nclass = Yes", fillcolor="#9ccef2"] ;
184 -> 186 ;
187 [label="node #187\nno_of_weekend_nights <= 1.5\ngini = 0.5\nsamples = 2\nvalue = [1, 1]\nclass = No", fillcolor="#ffffff"] ;
186 -> 187 ;
188 [label="node #188\ngini = 0.0\nsamples = 1\nvalue = [0, 1]\nclass = Yes", fillcolor="#399de5"] ;
187 -> 188 ;
189 [label="node #189\ngini = 0.0\nsamples = 1\nvalue = [1, 0]\nclass = No", fillcolor="#e58139"] ;
187 -> 189 ;
190 [label="node #190\ngini = 0.0\nsamples = 1\nvalue = [0, 1]\nclass = Yes", fillcolor="#399de5"] ;
186 -> 190 ;
191 [label="node #191\ngini = 0.0\nsamples = 1\nvalue = [1, 0]\nclass = No", fillcolor="#e58139"] ;
183 -> 191 ;
192 [label="node #192\nlead_time <= 12.5\ngini = 0.098\nsamples = 544\nvalue = [28, 516]\nclass = Yes", fillcolor="#44a2e6"] ;
182 -> 192 ;
193 [label="node #193\navg_price_per_room <= 102.0\ngini = 0.049\nsamples = 159\nvalue = [4, 155]\nclass = Yes", fillcolor="#3ea0e6"] ;
192 -> 193 ;
194 [label="node #194\navg_price_per_room <= 72.5\ngini = 0.028\nsamples = 142\nvalue = [2, 140]\nclass = Yes", fillcolor="#3c9ee5"] ;
193 -> 194 ;
195 [label="node #195\navg_price_per_room <= 72.125\ngini = 0.091\nsamples = 42\nvalue = [2, 40]\nclass = Yes", fillcolor="#43a2e6"] ;
194 -> 195 ;
196 [label="node #196\nno_of_adults <= 1.5\ngini = 0.053\nsamples = 37\nvalue = [1, 36]\nclass = Yes", fillcolor="#3ea0e6"] ;
195 -> 196 ;
197 [label="node #197\navg_price_per_room <= 67.44\ngini = 0.219\nsamples = 8\nvalue = [1, 7]\nclass = Yes", fillcolor="#55abe9"] ;
196 -> 197 ;
198 [label="node #198\ngini = 0.0\nsamples = 5\nvalue = [0, 5]\nclass = Yes", fillcolor="#399de5"] ;
197 -> 198 ;
199 [label="node #199\nlead_time <= 5.5\ngini = 0.444\nsamples = 3\nvalue = [1, 2]\nclass = Yes", fillcolor="#9ccef2"] ;
197 -> 199 ;
200 [label="node #200\ngini = 0.0\nsamples = 1\nvalue = [1, 0]\nclass = No", fillcolor="#e58139"] ;
199 -> 200 ;
201 [label="node #201\ngini = 0.0\nsamples = 2\nvalue = [0, 2]\nclass = Yes", fillcolor="#399de5"] ;
199 -> 201 ;
202 [label="node #202\ngini = 0.0\nsamples = 29\nvalue = [0, 29]\nclass = Yes", fillcolor="#399de5"] ;
196 -> 202 ;
203 [label="node #203\nno_of_weekend_nights <= 1.5\ngini = 0.32\nsamples = 5\nvalue = [1, 4]\nclass = Yes", fillcolor="#6ab6ec"] ;
195 -> 203 ;
204 [label="node #204\ngini = 0.0\nsamples = 4\nvalue = [0, 4]\nclass = Yes", fillcolor="#399de5"] ;
203 -> 204 ;
205 [label="node #205\ngini = 0.0\nsamples = 1\nvalue = [1, 0]\nclass = No", fillcolor="#e58139"] ;
203 -> 205 ;
206 [label="node #206\ngini = 0.0\nsamples = 100\nvalue = [0, 100]\nclass = Yes", fillcolor="#399de5"] ;
194 -> 206 ;
207 [label="node #207\navg_price_per_room <= 105.5\ngini = 0.208\nsamples = 17\nvalue = [2, 15]\nclass = Yes", fillcolor="#53aae8"] ;
193 -> 207 ;
208 [label="node #208\nlead_time <= 11.0\ngini = 0.5\nsamples = 2\nvalue = [1, 1]\nclass = No", fillcolor="#ffffff"] ;
207 -> 208 ;
209 [label="node #209\ngini = 0.0\nsamples = 1\nvalue = [1, 0]\nclass = No", fillcolor="#e58139"] ;
208 -> 209 ;
210 [label="node #210\ngini = 0.0\nsamples = 1\nvalue = [0, 1]\nclass = Yes", fillcolor="#399de5"] ;
208 -> 210 ;
211 [label="node #211\nno_of_week_nights <= 3.5\ngini = 0.124\nsamples = 15\nvalue = [1, 14]\nclass = Yes", fillcolor="#47a4e7"] ;
207 -> 211 ;
212 [label="node #212\ngini = 0.0\nsamples = 13\nvalue = [0, 13]\nclass = Yes", fillcolor="#399de5"] ;
211 -> 212 ;
213 [label="node #213\navg_price_per_room <= 113.27\ngini = 0.5\nsamples = 2\nvalue = [1, 1]\nclass = No", fillcolor="#ffffff"] ;
211 -> 213 ;
214 [label="node #214\ngini = 0.0\nsamples = 1\nvalue = [0, 1]\nclass = Yes", fillcolor="#399de5"] ;
213 -> 214 ;
215 [label="node #215\ngini = 0.0\nsamples = 1\nvalue = [1, 0]\nclass = No", fillcolor="#e58139"] ;
213 -> 215 ;
216 [label="node #216\nlead_time <= 55.5\ngini = 0.117\nsamples = 385\nvalue = [24, 361]\nclass = Yes", fillcolor="#46a4e7"] ;
192 -> 216 ;
217 [label="node #217\navg_price_per_room <= 70.775\ngini = 0.132\nsamples = 337\nvalue = [24, 313]\nclass = Yes", fillcolor="#48a5e7"] ;
216 -> 217 ;
218 [label="node #218\nlead_time <= 22.0\ngini = 0.046\nsamples = 85\nvalue = [2, 83]\nclass = Yes", fillcolor="#3e9fe6"] ;
217 -> 218 ;
219 [label="node #219\nno_of_adults <= 1.5\ngini = 0.245\nsamples = 14\nvalue = [2, 12]\nclass = Yes", fillcolor="#5aade9"] ;
218 -> 219 ;
220 [label="node #220\navg_price_per_room <= 66.375\ngini = 0.5\nsamples = 2\nvalue = [1, 1]\nclass = No", fillcolor="#ffffff"] ;
219 -> 220 ;
221 [label="node #221\ngini = 0.0\nsamples = 1\nvalue = [0, 1]\nclass = Yes", fillcolor="#399de5"] ;
220 -> 221 ;
222 [label="node #222\ngini = 0.0\nsamples = 1\nvalue = [1, 0]\nclass = No", fillcolor="#e58139"] ;
220 -> 222 ;
223 [label="node #223\nlead_time <= 20.5\ngini = 0.153\nsamples = 12\nvalue = [1, 11]\nclass = Yes", fillcolor="#4ba6e7"] ;
219 -> 223 ;
224 [label="node #224\ngini = 0.0\nsamples = 11\nvalue = [0, 11]\nclass = Yes", fillcolor="#399de5"] ;
223 -> 224 ;
225 [label="node #225\ngini = 0.0\nsamples = 1\nvalue = [1, 0]\nclass = No", fillcolor="#e58139"] ;
223 -> 225 ;
226 [label="node #226\ngini = 0.0\nsamples = 71\nvalue = [0, 71]\nclass = Yes", fillcolor="#399de5"] ;
218 -> 226 ;
227 [label="node #227\navg_price_per_room <= 71.04\ngini = 0.159\nsamples = 252\nvalue = [22, 230]\nclass = Yes", fillcolor="#4ca6e7"] ;
217 -> 227 ;
228 [label="node #228\ngini = 0.0\nsamples = 1\nvalue = [1, 0]\nclass = No", fillcolor="#e58139"] ;
227 -> 228 ;
229 [label="node #229\nno_of_adults <= 1.5\ngini = 0.153\nsamples = 251\nvalue = [21, 230]\nclass = Yes", fillcolor="#4ba6e7"] ;
227 -> 229 ;
230 [label="node #230\nlead_time <= 18.5\ngini = 0.337\nsamples = 14\nvalue = [3, 11]\nclass = Yes", fillcolor="#6fb8ec"] ;
229 -> 230 ;
231 [label="node #231\ngini = 0.0\nsamples = 5\nvalue = [0, 5]\nclass = Yes", fillcolor="#399de5"] ;
230 -> 231 ;
232 [label="node #232\nlead_time <= 23.0\ngini = 0.444\nsamples = 9\nvalue = [3, 6]\nclass = Yes", fillcolor="#9ccef2"] ;
230 -> 232 ;
233 [label="node #233\ngini = 0.0\nsamples = 1\nvalue = [1, 0]\nclass = No", fillcolor="#e58139"] ;
232 -> 233 ;
234 [label="node #234\navg_price_per_room <= 76.3\ngini = 0.375\nsamples = 8\nvalue = [2, 6]\nclass = Yes", fillcolor="#7bbeee"] ;
232 -> 234 ;
235 [label="node #235\ntype_of_meal_plan <= 1.5\ngini = 0.5\nsamples = 4\nvalue = [2, 2]\nclass = No", fillcolor="#ffffff"] ;
234 -> 235 ;
236 [label="node #236\ngini = 0.0\nsamples = 2\nvalue = [2, 0]\nclass = No", fillcolor="#e58139"] ;
235 -> 236 ;
237 [label="node #237\ngini = 0.0\nsamples = 2\nvalue = [0, 2]\nclass = Yes", fillcolor="#399de5"] ;
235 -> 237 ;
238 [label="node #238\ngini = 0.0\nsamples = 4\nvalue = [0, 4]\nclass = Yes", fillcolor="#399de5"] ;
234 -> 238 ;
239 [label="node #239\nlead_time <= 54.5\ngini = 0.14\nsamples = 237\nvalue = [18, 219]\nclass = Yes", fillcolor="#49a5e7"] ;
229 -> 239 ;
240 [label="node #240\navg_price_per_room <= 153.86\ngini = 0.135\nsamples = 234\nvalue = [17, 217]\nclass = Yes", fillcolor="#49a5e7"] ;
239 -> 240 ;
241 [label="node #241\navg_price_per_room <= 86.9\ngini = 0.129\nsamples = 231\nvalue = [16, 215]\nclass = Yes", fillcolor="#48a4e7"] ;
240 -> 241 ;
242 [label="node #242\navg_price_per_room <= 86.65\ngini = 0.163\nsamples = 156\nvalue = [14, 142]\nclass = Yes", fillcolor="#4da7e8"] ;
241 -> 242 ;
243 [label="node #243\nlead_time <= 23.5\ngini = 0.154\nsamples = 155\nvalue = [13.0, 142.0]\nclass = Yes", fillcolor="#4ba6e7"] ;
242 -> 243 ;
244 [label="node #244\ngini = 0.0\nsamples = 25\nvalue = [0, 25]\nclass = Yes", fillcolor="#399de5"] ;
243 -> 244 ;
245 [label="node #245\nno_of_week_nights <= 2.5\ngini = 0.18\nsamples = 130\nvalue = [13, 117]\nclass = Yes", fillcolor="#4fa8e8"] ;
243 -> 245 ;
246 [label="node #246\nlead_time <= 33.5\ngini = 0.226\nsamples = 77\nvalue = [10.0, 67.0]\nclass = Yes", fillcolor="#57ace9"] ;
245 -> 246 ;
247 [label="node #247\navg_price_per_room <= 79.1\ngini = 0.334\nsamples = 33\nvalue = [7, 26]\nclass = Yes", fillcolor="#6eb7ec"] ;
246 -> 247 ;
248 [label="node #248\nlead_time <= 24.5\ngini = 0.415\nsamples = 17\nvalue = [5, 12]\nclass = Yes", fillcolor="#8bc6f0"] ;
247 -> 248 ;
249 [label="node #249\ngini = 0.0\nsamples = 1\nvalue = [1, 0]\nclass = No", fillcolor="#e58139"] ;
248 -> 249 ;
250 [label="node #250\navg_price_per_room <= 76.6\ngini = 0.375\nsamples = 16\nvalue = [4, 12]\nclass = Yes", fillcolor="#7bbeee"] ;
248 -> 250 ;
251 [label="node #251\nlead_time <= 28.0\ngini = 0.32\nsamples = 15\nvalue = [3, 12]\nclass = Yes", fillcolor="#6ab6ec"] ;
250 -> 251 ;
252 [label="node #252\ngini = 0.0\nsamples = 4\nvalue = [0, 4]\nclass = Yes", fillcolor="#399de5"] ;
251 -> 252 ;
253 [label="node #253\nroom_type_reserved_Room_Type 1 <= 0.5\ngini = 0.397\nsamples = 11\nvalue = [3, 8]\nclass = Yes", fillcolor="#83c2ef"] ;
251 -> 253 ;
254 [label="node #254\ngini = 0.0\nsamples = 1\nvalue = [0, 1]\nclass = Yes", fillcolor="#399de5"] ;
253 -> 254 ;
255 [label="node #255\ngini = 0.42\nsamples = 10\nvalue = [3, 7]\nclass = Yes", fillcolor="#8ec7f0"] ;
253 -> 255 ;
256 [label="node #256\ngini = 0.0\nsamples = 1\nvalue = [1, 0]\nclass = No", fillcolor="#e58139"] ;
250 -> 256 ;
257 [label="node #257\nlead_time <= 32.5\ngini = 0.219\nsamples = 16\nvalue = [2, 14]\nclass = Yes", fillcolor="#55abe9"] ;
247 -> 257 ;
258 [label="node #258\nlead_time <= 25.5\ngini = 0.133\nsamples = 14\nvalue = [1, 13]\nclass = Yes", fillcolor="#48a5e7"] ;
257 -> 258 ;
259 [label="node #259\nno_of_weekend_nights <= 1.5\ngini = 0.32\nsamples = 5\nvalue = [1, 4]\nclass = Yes", fillcolor="#6ab6ec"] ;
258 -> 259 ;
260 [label="node #260\ngini = 0.0\nsamples = 3\nvalue = [0, 3]\nclass = Yes", fillcolor="#399de5"] ;
259 -> 260 ;
261 [label="node #261\ngini = 0.5\nsamples = 2\nvalue = [1, 1]\nclass = No", fillcolor="#ffffff"] ;
259 -> 261 ;
262 [label="node #262\ngini = 0.0\nsamples = 9\nvalue = [0, 9]\nclass = Yes", fillcolor="#399de5"] ;
258 -> 262 ;
263 [label="node #263\navg_price_per_room <= 85.25\ngini = 0.5\nsamples = 2\nvalue = [1, 1]\nclass = No", fillcolor="#ffffff"] ;
257 -> 263 ;
264 [label="node #264\ngini = 0.0\nsamples = 1\nvalue = [1, 0]\nclass = No", fillcolor="#e58139"] ;
263 -> 264 ;
265 [label="node #265\ngini = 0.0\nsamples = 1\nvalue = [0, 1]\nclass = Yes", fillcolor="#399de5"] ;
263 -> 265 ;
266 [label="node #266\navg_price_per_room <= 83.0\ngini = 0.127\nsamples = 44\nvalue = [3, 41]\nclass = Yes", fillcolor="#47a4e7"] ;
246 -> 266 ;
267 [label="node #267\ngini = 0.0\nsamples = 27\nvalue = [0, 27]\nclass = Yes", fillcolor="#399de5"] ;
266 -> 267 ;
268 [label="node #268\nlead_time <= 45.5\ngini = 0.291\nsamples = 17\nvalue = [3, 14]\nclass = Yes", fillcolor="#63b2eb"] ;
266 -> 268 ;
269 [label="node #269\nno_of_weekend_nights <= 1.5\ngini = 0.153\nsamples = 12\nvalue = [1, 11]\nclass = Yes", fillcolor="#4ba6e7"] ;
268 -> 269 ;
270 [label="node #270\ngini = 0.0\nsamples = 7\nvalue = [0, 7]\nclass = Yes", fillcolor="#399de5"] ;
269 -> 270 ;
271 [label="node #271\nlead_time <= 39.5\ngini = 0.32\nsamples = 5\nvalue = [1, 4]\nclass = Yes", fillcolor="#6ab6ec"] ;
269 -> 271 ;
272 [label="node #272\ngini = 0.0\nsamples = 2\nvalue = [0, 2]\nclass = Yes", fillcolor="#399de5"] ;
271 -> 272 ;
273 [label="node #273\nlead_time <= 40.5\ngini = 0.444\nsamples = 3\nvalue = [1, 2]\nclass = Yes", fillcolor="#9ccef2"] ;
271 -> 273 ;
274 [label="node #274\ngini = 0.0\nsamples = 1\nvalue = [1, 0]\nclass = No", fillcolor="#e58139"] ;
273 -> 274 ;
275 [label="node #275\ngini = 0.0\nsamples = 2\nvalue = [0, 2]\nclass = Yes", fillcolor="#399de5"] ;
273 -> 275 ;
276 [label="node #276\nlead_time <= 49.5\ngini = 0.48\nsamples = 5\nvalue = [2, 3]\nclass = Yes", fillcolor="#bddef6"] ;
268 -> 276 ;
277 [label="node #277\navg_price_per_room <= 85.25\ngini = 0.444\nsamples = 3\nvalue = [2, 1]\nclass = No", fillcolor="#f2c09c"] ;
276 -> 277 ;
278 [label="node #278\ngini = 0.0\nsamples = 2\nvalue = [2, 0]\nclass = No", fillcolor="#e58139"] ;
277 -> 278 ;
279 [label="node #279\ngini = 0.0\nsamples = 1\nvalue = [0, 1]\nclass = Yes", fillcolor="#399de5"] ;
277 -> 279 ;
280 [label="node #280\ngini = 0.0\nsamples = 2\nvalue = [0, 2]\nclass = Yes", fillcolor="#399de5"] ;
276 -> 280 ;
281 [label="node #281\nlead_time <= 48.5\ngini = 0.107\nsamples = 53\nvalue = [3, 50]\nclass = Yes", fillcolor="#45a3e7"] ;
245 -> 281 ;
282 [label="node #282\ngini = 0.0\nsamples = 46\nvalue = [0, 46]\nclass = Yes", fillcolor="#399de5"] ;
281 -> 282 ;
283 [label="node #283\nlead_time <= 51.0\ngini = 0.49\nsamples = 7\nvalue = [3, 4]\nclass = Yes", fillcolor="#cee6f8"] ;
281 -> 283 ;
284 [label="node #284\ngini = 0.0\nsamples = 2\nvalue = [2, 0]\nclass = No", fillcolor="#e58139"] ;
283 -> 284 ;
285 [label="node #285\nlead_time <= 53.5\ngini = 0.32\nsamples = 5\nvalue = [1, 4]\nclass = Yes", fillcolor="#6ab6ec"] ;
283 -> 285 ;
286 [label="node #286\ngini = 0.0\nsamples = 4\nvalue = [0, 4]\nclass = Yes", fillcolor="#399de5"] ;
285 -> 286 ;
287 [label="node #287\ngini = 0.0\nsamples = 1\nvalue = [1, 0]\nclass = No", fillcolor="#e58139"] ;
285 -> 287 ;
288 [label="node #288\ngini = 0.0\nsamples = 1\nvalue = [1, 0]\nclass = No", fillcolor="#e58139"] ;
242 -> 288 ;
289 [label="node #289\nlead_time <= 17.5\ngini = 0.052\nsamples = 75\nvalue = [2, 73]\nclass = Yes", fillcolor="#3ea0e6"] ;
241 -> 289 ;
290 [label="node #290\nno_of_weekend_nights <= 1.5\ngini = 0.298\nsamples = 11\nvalue = [2, 9]\nclass = Yes", fillcolor="#65b3eb"] ;
289 -> 290 ;
291 [label="node #291\ngini = 0.0\nsamples = 1\nvalue = [1, 0]\nclass = No", fillcolor="#e58139"] ;
290 -> 291 ;
292 [label="node #292\navg_price_per_room <= 114.5\ngini = 0.18\nsamples = 10\nvalue = [1, 9]\nclass = Yes", fillcolor="#4fa8e8"] ;
290 -> 292 ;
293 [label="node #293\ngini = 0.0\nsamples = 8\nvalue = [0, 8]\nclass = Yes", fillcolor="#399de5"] ;
292 -> 293 ;
294 [label="node #294\navg_price_per_room <= 123.985\ngini = 0.5\nsamples = 2\nvalue = [1, 1]\nclass = No", fillcolor="#ffffff"] ;
292 -> 294 ;
295 [label="node #295\ngini = 0.0\nsamples = 1\nvalue = [1, 0]\nclass = No", fillcolor="#e58139"] ;
294 -> 295 ;
296 [label="node #296\ngini = 0.0\nsamples = 1\nvalue = [0, 1]\nclass = Yes", fillcolor="#399de5"] ;
294 -> 296 ;
297 [label="node #297\ngini = 0.0\nsamples = 64\nvalue = [0, 64]\nclass = Yes", fillcolor="#399de5"] ;
289 -> 297 ;
298 [label="node #298\nlead_time <= 24.0\ngini = 0.444\nsamples = 3\nvalue = [1, 2]\nclass = Yes", fillcolor="#9ccef2"] ;
240 -> 298 ;
299 [label="node #299\ngini = 0.0\nsamples = 1\nvalue = [1, 0]\nclass = No", fillcolor="#e58139"] ;
298 -> 299 ;
300 [label="node #300\ngini = 0.0\nsamples = 2\nvalue = [0, 2]\nclass = Yes", fillcolor="#399de5"] ;
298 -> 300 ;
301 [label="node #301\nno_of_weekend_nights <= 1.5\ngini = 0.444\nsamples = 3\nvalue = [1, 2]\nclass = Yes", fillcolor="#9ccef2"] ;
239 -> 301 ;
302 [label="node #302\ngini = 0.0\nsamples = 1\nvalue = [1, 0]\nclass = No", fillcolor="#e58139"] ;
301 -> 302 ;
303 [label="node #303\ngini = 0.0\nsamples = 2\nvalue = [0, 2]\nclass = Yes", fillcolor="#399de5"] ;
301 -> 303 ;
304 [label="node #304\ngini = 0.0\nsamples = 48\nvalue = [0, 48]\nclass = Yes", fillcolor="#399de5"] ;
216 -> 304 ;
305 [label="node #305\nno_of_week_nights <= 1.5\ngini = 0.311\nsamples = 166\nvalue = [32, 134]\nclass = Yes", fillcolor="#68b4eb"] ;
53 -> 305 ;
306 [label="node #306\navg_price_per_room <= 48.75\ngini = 0.165\nsamples = 77\nvalue = [7, 70]\nclass = Yes", fillcolor="#4da7e8"] ;
305 -> 306 ;
307 [label="node #307\nlead_time <= 63.5\ngini = 0.444\nsamples = 6\nvalue = [4, 2]\nclass = No", fillcolor="#f2c09c"] ;
306 -> 307 ;
308 [label="node #308\ngini = 0.0\nsamples = 4\nvalue = [4, 0]\nclass = No", fillcolor="#e58139"] ;
307 -> 308 ;
309 [label="node #309\ngini = 0.0\nsamples = 2\nvalue = [0, 2]\nclass = Yes", fillcolor="#399de5"] ;
307 -> 309 ;
310 [label="node #310\navg_price_per_room <= 93.44\ngini = 0.081\nsamples = 71\nvalue = [3, 68]\nclass = Yes", fillcolor="#42a1e6"] ;
306 -> 310 ;
311 [label="node #311\nlead_time <= 66.5\ngini = 0.058\nsamples = 67\nvalue = [2, 65]\nclass = Yes", fillcolor="#3fa0e6"] ;
310 -> 311 ;
312 [label="node #312\navg_price_per_room <= 70.125\ngini = 0.032\nsamples = 61\nvalue = [1, 60]\nclass = Yes", fillcolor="#3c9fe5"] ;
311 -> 312 ;
313 [label="node #313\navg_price_per_room <= 66.5\ngini = 0.074\nsamples = 26\nvalue = [1, 25]\nclass = Yes", fillcolor="#41a1e6"] ;
312 -> 313 ;
314 [label="node #314\ngini = 0.0\nsamples = 24\nvalue = [0, 24]\nclass = Yes", fillcolor="#399de5"] ;
313 -> 314 ;
315 [label="node #315\nlead_time <= 63.0\ngini = 0.5\nsamples = 2\nvalue = [1, 1]\nclass = No", fillcolor="#ffffff"] ;
313 -> 315 ;
316 [label="node #316\ngini = 0.0\nsamples = 1\nvalue = [1, 0]\nclass = No", fillcolor="#e58139"] ;
315 -> 316 ;
317 [label="node #317\ngini = 0.0\nsamples = 1\nvalue = [0, 1]\nclass = Yes", fillcolor="#399de5"] ;
315 -> 317 ;
318 [label="node #318\ngini = 0.0\nsamples = 35\nvalue = [0, 35]\nclass = Yes", fillcolor="#399de5"] ;
312 -> 318 ;
319 [label="node #319\nno_of_adults <= 1.5\ngini = 0.278\nsamples = 6\nvalue = [1, 5]\nclass = Yes", fillcolor="#61b1ea"] ;
311 -> 319 ;
320 [label="node #320\ngini = 0.0\nsamples = 1\nvalue = [1, 0]\nclass = No", fillcolor="#e58139"] ;
319 -> 320 ;
321 [label="node #321\ngini = 0.0\nsamples = 5\nvalue = [0, 5]\nclass = Yes", fillcolor="#399de5"] ;
319 -> 321 ;
322 [label="node #322\navg_price_per_room <= 100.44\ngini = 0.375\nsamples = 4\nvalue = [1, 3]\nclass = Yes", fillcolor="#7bbeee"] ;
310 -> 322 ;
323 [label="node #323\ngini = 0.0\nsamples = 1\nvalue = [1, 0]\nclass = No", fillcolor="#e58139"] ;
322 -> 323 ;
324 [label="node #324\ngini = 0.0\nsamples = 3\nvalue = [0, 3]\nclass = Yes", fillcolor="#399de5"] ;
322 -> 324 ;
325 [label="node #325\navg_price_per_room <= 73.625\ngini = 0.404\nsamples = 89\nvalue = [25, 64]\nclass = Yes", fillcolor="#86c3ef"] ;
305 -> 325 ;
326 [label="node #326\ngini = 0.0\nsamples = 22\nvalue = [0, 22]\nclass = Yes", fillcolor="#399de5"] ;
325 -> 326 ;
327 [label="node #327\nlead_time <= 61.0\ngini = 0.468\nsamples = 67\nvalue = [25, 42]\nclass = Yes", fillcolor="#afd7f4"] ;
325 -> 327 ;
328 [label="node #328\nno_of_week_nights <= 2.5\ngini = 0.391\nsamples = 15\nvalue = [11, 4]\nclass = No", fillcolor="#eeaf81"] ;
327 -> 328 ;
329 [label="node #329\ngini = 0.26\nsamples = 13\nvalue = [11, 2]\nclass = No", fillcolor="#ea985d"] ;
328 -> 329 ;
330 [label="node #330\ngini = 0.0\nsamples = 2\nvalue = [0, 2]\nclass = Yes", fillcolor="#399de5"] ;
328 -> 330 ;
331 [label="node #331\nlead_time <= 65.5\ngini = 0.393\nsamples = 52\nvalue = [14, 38]\nclass = Yes", fillcolor="#82c1ef"] ;
327 -> 331 ;
332 [label="node #332\nno_of_week_nights <= 3.5\ngini = 0.105\nsamples = 18\nvalue = [1, 17]\nclass = Yes", fillcolor="#45a3e7"] ;
331 -> 332 ;
333 [label="node #333\ngini = 0.0\nsamples = 13\nvalue = [0, 13]\nclass = Yes", fillcolor="#399de5"] ;
332 -> 333 ;
334 [label="node #334\navg_price_per_room <= 90.23\ngini = 0.32\nsamples = 5\nvalue = [1, 4]\nclass = Yes", fillcolor="#6ab6ec"] ;
332 -> 334 ;
335 [label="node #335\ngini = 0.0\nsamples = 1\nvalue = [1, 0]\nclass = No", fillcolor="#e58139"] ;
334 -> 335 ;
336 [label="node #336\ngini = 0.0\nsamples = 4\nvalue = [0, 4]\nclass = Yes", fillcolor="#399de5"] ;
334 -> 336 ;
337 [label="node #337\nno_of_children <= 0.5\ngini = 0.472\nsamples = 34\nvalue = [13, 21]\nclass = Yes", fillcolor="#b4daf5"] ;
331 -> 337 ;
338 [label="node #338\nlead_time <= 66.5\ngini = 0.451\nsamples = 32\nvalue = [11, 21]\nclass = Yes", fillcolor="#a1d0f3"] ;
337 -> 338 ;
339 [label="node #339\nno_of_week_nights <= 3.0\ngini = 0.5\nsamples = 20\nvalue = [10, 10]\nclass = No", fillcolor="#ffffff"] ;
338 -> 339 ;
340 [label="node #340\ngini = 0.499\nsamples = 19\nvalue = [10, 9]\nclass = No", fillcolor="#fcf2eb"] ;
339 -> 340 ;
341 [label="node #341\ngini = 0.0\nsamples = 1\nvalue = [0, 1]\nclass = Yes", fillcolor="#399de5"] ;
339 -> 341 ;
342 [label="node #342\nno_of_week_nights <= 4.0\ngini = 0.153\nsamples = 12\nvalue = [1, 11]\nclass = Yes", fillcolor="#4ba6e7"] ;
338 -> 342 ;
343 [label="node #343\ngini = 0.0\nsamples = 11\nvalue = [0, 11]\nclass = Yes", fillcolor="#399de5"] ;
342 -> 343 ;
344 [label="node #344\ngini = 0.0\nsamples = 1\nvalue = [1, 0]\nclass = No", fillcolor="#e58139"] ;
342 -> 344 ;
345 [label="node #345\ngini = 0.0\nsamples = 2\nvalue = [2, 0]\nclass = No", fillcolor="#e58139"] ;
337 -> 345 ;
346 [label="node #346\nno_of_week_nights <= 3.5\ngini = 0.479\nsamples = 108\nvalue = [65, 43]\nclass = No", fillcolor="#f6d4bc"] ;
36 -> 346 ;
347 [label="node #347\navg_price_per_room <= 84.575\ngini = 0.093\nsamples = 41\nvalue = [2, 39]\nclass = Yes", fillcolor="#43a2e6"] ;
346 -> 347 ;
348 [label="node #348\ngini = 0.0\nsamples = 29\nvalue = [0, 29]\nclass = Yes", fillcolor="#399de5"] ;
347 -> 348 ;
349 [label="node #349\nno_of_week_nights <= 2.5\ngini = 0.278\nsamples = 12\nvalue = [2, 10]\nclass = Yes", fillcolor="#61b1ea"] ;
347 -> 349 ;
350 [label="node #350\navg_price_per_room <= 113.05\ngini = 0.165\nsamples = 11\nvalue = [1, 10]\nclass = Yes", fillcolor="#4da7e8"] ;
349 -> 350 ;
351 [label="node #351\nroom_type_reserved_Room_Type 4 <= 0.5\ngini = 0.32\nsamples = 5\nvalue = [1, 4]\nclass = Yes", fillcolor="#6ab6ec"] ;
350 -> 351 ;
352 [label="node #352\ngini = 0.0\nsamples = 4\nvalue = [0, 4]\nclass = Yes", fillcolor="#399de5"] ;
351 -> 352 ;
353 [label="node #353\ngini = 0.0\nsamples = 1\nvalue = [1, 0]\nclass = No", fillcolor="#e58139"] ;
351 -> 353 ;
354 [label="node #354\ngini = 0.0\nsamples = 6\nvalue = [0, 6]\nclass = Yes", fillcolor="#399de5"] ;
350 -> 354 ;
355 [label="node #355\ngini = 0.0\nsamples = 1\nvalue = [1, 0]\nclass = No", fillcolor="#e58139"] ;
349 -> 355 ;
356 [label="node #356\nlead_time <= 72.5\ngini = 0.112\nsamples = 67\nvalue = [63, 4]\nclass = No", fillcolor="#e78946"] ;
346 -> 356 ;
357 [label="node #357\navg_price_per_room <= 66.0\ngini = 0.06\nsamples = 65\nvalue = [63, 2]\nclass = No", fillcolor="#e6853f"] ;
356 -> 357 ;
358 [label="node #358\ngini = 0.0\nsamples = 1\nvalue = [0, 1]\nclass = Yes", fillcolor="#399de5"] ;
357 -> 358 ;
359 [label="node #359\navg_price_per_room <= 128.765\ngini = 0.031\nsamples = 64\nvalue = [63, 1]\nclass = No", fillcolor="#e5833c"] ;
357 -> 359 ;
360 [label="node #360\ngini = 0.0\nsamples = 63\nvalue = [63, 0]\nclass = No", fillcolor="#e58139"] ;
359 -> 360 ;
361 [label="node #361\ngini = 0.0\nsamples = 1\nvalue = [0, 1]\nclass = Yes", fillcolor="#399de5"] ;
359 -> 361 ;
362 [label="node #362\ngini = 0.0\nsamples = 2\nvalue = [0, 2]\nclass = Yes", fillcolor="#399de5"] ;
356 -> 362 ;
363 [label="node #363\nno_of_week_nights <= 2.5\ngini = 0.426\nsamples = 2029\nvalue = [623, 1406]\nclass = Yes", fillcolor="#91c8f1"] ;
3 -> 363 ;
364 [label="node #364\nlead_time <= 116.5\ngini = 0.477\nsamples = 1417\nvalue = [556, 861]\nclass = Yes", fillcolor="#b9dcf6"] ;
363 -> 364 ;
365 [label="node #365\nlead_time <= 98.5\ngini = 0.497\nsamples = 960\nvalue = [445, 515]\nclass = Yes", fillcolor="#e4f2fb"] ;
364 -> 365 ;
366 [label="node #366\nlead_time <= 78.5\ngini = 0.396\nsamples = 415\nvalue = [113.0, 302.0]\nclass = Yes", fillcolor="#83c2ef"] ;
365 -> 366 ;
367 [label="node #367\navg_price_per_room <= 90.375\ngini = 0.363\nsamples = 63\nvalue = [48, 15]\nclass = No", fillcolor="#eda877"] ;
366 -> 367 ;
368 [label="node #368\ntype_of_meal_plan <= 0.5\ngini = 0.133\nsamples = 14\nvalue = [1, 13]\nclass = Yes", fillcolor="#48a5e7"] ;
367 -> 368 ;
369 [label="node #369\navg_price_per_room <= 68.0\ngini = 0.5\nsamples = 2\nvalue = [1, 1]\nclass = No", fillcolor="#ffffff"] ;
368 -> 369 ;
370 [label="node #370\ngini = 0.0\nsamples = 1\nvalue = [1, 0]\nclass = No", fillcolor="#e58139"] ;
369 -> 370 ;
371 [label="node #371\ngini = 0.0\nsamples = 1\nvalue = [0, 1]\nclass = Yes", fillcolor="#399de5"] ;
369 -> 371 ;
372 [label="node #372\ngini = 0.0\nsamples = 12\nvalue = [0, 12]\nclass = Yes", fillcolor="#399de5"] ;
368 -> 372 ;
373 [label="node #373\navg_price_per_room <= 120.245\ngini = 0.078\nsamples = 49\nvalue = [47.0, 2.0]\nclass = No", fillcolor="#e68641"] ;
367 -> 373 ;
374 [label="node #374\ngini = 0.0\nsamples = 47\nvalue = [47, 0]\nclass = No", fillcolor="#e58139"] ;
373 -> 374 ;
375 [label="node #375\ngini = 0.0\nsamples = 2\nvalue = [0, 2]\nclass = Yes", fillcolor="#399de5"] ;
373 -> 375 ;
376 [label="node #376\nno_of_weekend_nights <= 1.5\ngini = 0.301\nsamples = 352\nvalue = [65, 287]\nclass = Yes", fillcolor="#66b3eb"] ;
366 -> 376 ;
377 [label="node #377\nlead_time <= 90.5\ngini = 0.117\nsamples = 240\nvalue = [15, 225]\nclass = Yes", fillcolor="#46a4e7"] ;
376 -> 377 ;
378 [label="node #378\nno_of_weekend_nights <= 0.5\ngini = 0.033\nsamples = 178\nvalue = [3, 175]\nclass = Yes", fillcolor="#3c9fe5"] ;
377 -> 378 ;
379 [label="node #379\ngini = 0.0\nsamples = 119\nvalue = [0, 119]\nclass = Yes", fillcolor="#399de5"] ;
378 -> 379 ;
380 [label="node #380\nlead_time <= 80.5\ngini = 0.097\nsamples = 59\nvalue = [3, 56]\nclass = Yes", fillcolor="#44a2e6"] ;
378 -> 380 ;
381 [label="node #381\navg_price_per_room <= 77.875\ngini = 0.32\nsamples = 10\nvalue = [2, 8]\nclass = Yes", fillcolor="#6ab6ec"] ;
380 -> 381 ;
382 [label="node #382\nlead_time <= 79.5\ngini = 0.444\nsamples = 3\nvalue = [2, 1]\nclass = No", fillcolor="#f2c09c"] ;
381 -> 382 ;
383 [label="node #383\ngini = 0.0\nsamples = 1\nvalue = [0, 1]\nclass = Yes", fillcolor="#399de5"] ;
382 -> 383 ;
384 [label="node #384\ngini = 0.0\nsamples = 2\nvalue = [2, 0]\nclass = No", fillcolor="#e58139"] ;
382 -> 384 ;
385 [label="node #385\ngini = 0.0\nsamples = 7\nvalue = [0, 7]\nclass = Yes", fillcolor="#399de5"] ;
381 -> 385 ;
386 [label="node #386\nroom_type_reserved_Room_Type 4 <= 0.5\ngini = 0.04\nsamples = 49\nvalue = [1.0, 48.0]\nclass = Yes", fillcolor="#3d9fe6"] ;
380 -> 386 ;
387 [label="node #387\ngini = 0.0\nsamples = 47\nvalue = [0, 47]\nclass = Yes", fillcolor="#399de5"] ;
386 -> 387 ;
388 [label="node #388\navg_price_per_room <= 64.56\ngini = 0.5\nsamples = 2\nvalue = [1, 1]\nclass = No", fillcolor="#ffffff"] ;
386 -> 388 ;
389 [label="node #389\ngini = 0.0\nsamples = 1\nvalue = [0, 1]\nclass = Yes", fillcolor="#399de5"] ;
388 -> 389 ;
390 [label="node #390\ngini = 0.0\nsamples = 1\nvalue = [1, 0]\nclass = No", fillcolor="#e58139"] ;
388 -> 390 ;
391 [label="node #391\nlead_time <= 91.5\ngini = 0.312\nsamples = 62\nvalue = [12, 50]\nclass = Yes", fillcolor="#69b5eb"] ;
377 -> 391 ;
392 [label="node #392\nno_of_weekend_nights <= 0.5\ngini = 0.464\nsamples = 30\nvalue = [11, 19]\nclass = Yes", fillcolor="#acd6f4"] ;
391 -> 392 ;
393 [label="node #393\ngini = 0.0\nsamples = 3\nvalue = [3, 0]\nclass = No", fillcolor="#e58139"] ;
392 -> 393 ;
394 [label="node #394\navg_price_per_room <= 77.5\ngini = 0.417\nsamples = 27\nvalue = [8, 19]\nclass = Yes", fillcolor="#8cc6f0"] ;
392 -> 394 ;
395 [label="node #395\ngini = 0.0\nsamples = 7\nvalue = [0, 7]\nclass = Yes", fillcolor="#399de5"] ;
394 -> 395 ;
396 [label="node #396\navg_price_per_room <= 100.475\ngini = 0.48\nsamples = 20\nvalue = [8, 12]\nclass = Yes", fillcolor="#bddef6"] ;
394 -> 396 ;
397 [label="node #397\navg_price_per_room <= 86.7\ngini = 0.494\nsamples = 18\nvalue = [8, 10]\nclass = Yes", fillcolor="#d7ebfa"] ;
396 -> 397 ;
398 [label="node #398\navg_price_per_room <= 80.375\ngini = 0.484\nsamples = 17\nvalue = [7, 10]\nclass = Yes", fillcolor="#c4e2f7"] ;
397 -> 398 ;
399 [label="node #399\ngini = 0.498\nsamples = 15\nvalue = [7, 8]\nclass = Yes", fillcolor="#e6f3fc"] ;
398 -> 399 ;
400 [label="node #400\ngini = 0.0\nsamples = 2\nvalue = [0, 2]\nclass = Yes", fillcolor="#399de5"] ;
398 -> 400 ;
401 [label="node #401\ngini = 0.0\nsamples = 1\nvalue = [1, 0]\nclass = No", fillcolor="#e58139"] ;
397 -> 401 ;
402 [label="node #402\ngini = 0.0\nsamples = 2\nvalue = [0, 2]\nclass = Yes", fillcolor="#399de5"] ;
396 -> 402 ;
403 [label="node #403\navg_price_per_room <= 93.825\ngini = 0.061\nsamples = 32\nvalue = [1, 31]\nclass = Yes", fillcolor="#3fa0e6"] ;
391 -> 403 ;
404 [label="node #404\ngini = 0.0\nsamples = 29\nvalue = [0, 29]\nclass = Yes", fillcolor="#399de5"] ;
403 -> 404 ;
405 [label="node #405\nno_of_weekend_nights <= 0.5\ngini = 0.444\nsamples = 3\nvalue = [1, 2]\nclass = Yes", fillcolor="#9ccef2"] ;
403 -> 405 ;
406 [label="node #406\ngini = 0.0\nsamples = 1\nvalue = [1, 0]\nclass = No", fillcolor="#e58139"] ;
405 -> 406 ;
407 [label="node #407\ngini = 0.0\nsamples = 2\nvalue = [0, 2]\nclass = Yes", fillcolor="#399de5"] ;
405 -> 407 ;
408 [label="node #408\navg_price_per_room <= 99.98\ngini = 0.494\nsamples = 112\nvalue = [50, 62]\nclass = Yes", fillcolor="#d9ecfa"] ;
376 -> 408 ;
409 [label="node #409\navg_price_per_room <= 67.25\ngini = 0.358\nsamples = 77\nvalue = [18, 59]\nclass = Yes", fillcolor="#75bbed"] ;
408 -> 409 ;
410 [label="node #410\navg_price_per_room <= 64.375\ngini = 0.497\nsamples = 13\nvalue = [7, 6]\nclass = No", fillcolor="#fbede3"] ;
409 -> 410 ;
411 [label="node #411\ngini = 0.0\nsamples = 5\nvalue = [0, 5]\nclass = Yes", fillcolor="#399de5"] ;
410 -> 411 ;
412 [label="node #412\nno_of_week_nights <= 1.5\ngini = 0.219\nsamples = 8\nvalue = [7, 1]\nclass = No", fillcolor="#e99355"] ;
410 -> 412 ;
413 [label="node #413\ngini = 0.0\nsamples = 1\nvalue = [0, 1]\nclass = Yes", fillcolor="#399de5"] ;
412 -> 413 ;
414 [label="node #414\ngini = 0.0\nsamples = 7\nvalue = [7, 0]\nclass = No", fillcolor="#e58139"] ;
412 -> 414 ;
415 [label="node #415\nlead_time <= 95.5\ngini = 0.285\nsamples = 64\nvalue = [11, 53]\nclass = Yes", fillcolor="#62b1ea"] ;
409 -> 415 ;
416 [label="node #416\navg_price_per_room <= 74.9\ngini = 0.095\nsamples = 40\nvalue = [2, 38]\nclass = Yes", fillcolor="#43a2e6"] ;
415 -> 416 ;
417 [label="node #417\navg_price_per_room <= 73.525\ngini = 0.32\nsamples = 5\nvalue = [1, 4]\nclass = Yes", fillcolor="#6ab6ec"] ;
416 -> 417 ;
418 [label="node #418\ngini = 0.0\nsamples = 4\nvalue = [0, 4]\nclass = Yes", fillcolor="#399de5"] ;
417 -> 418 ;
419 [label="node #419\ngini = 0.0\nsamples = 1\nvalue = [1, 0]\nclass = No", fillcolor="#e58139"] ;
417 -> 419 ;
420 [label="node #420\nlead_time <= 88.5\ngini = 0.056\nsamples = 35\nvalue = [1, 34]\nclass = Yes", fillcolor="#3fa0e6"] ;
416 -> 420 ;
421 [label="node #421\ngini = 0.0\nsamples = 27\nvalue = [0, 27]\nclass = Yes", fillcolor="#399de5"] ;
420 -> 421 ;
422 [label="node #422\nlead_time <= 89.5\ngini = 0.219\nsamples = 8\nvalue = [1, 7]\nclass = Yes", fillcolor="#55abe9"] ;
420 -> 422 ;
423 [label="node #423\navg_price_per_room <= 77.875\ngini = 0.5\nsamples = 2\nvalue = [1, 1]\nclass = No", fillcolor="#ffffff"] ;
422 -> 423 ;
424 [label="node #424\ngini = 0.0\nsamples = 1\nvalue = [0, 1]\nclass = Yes", fillcolor="#399de5"] ;
423 -> 424 ;
425 [label="node #425\ngini = 0.0\nsamples = 1\nvalue = [1, 0]\nclass = No", fillcolor="#e58139"] ;
423 -> 425 ;
426 [label="node #426\ngini = 0.0\nsamples = 6\nvalue = [0, 6]\nclass = Yes", fillcolor="#399de5"] ;
422 -> 426 ;
427 [label="node #427\nlead_time <= 96.5\ngini = 0.469\nsamples = 24\nvalue = [9, 15]\nclass = Yes", fillcolor="#b0d8f5"] ;
415 -> 427 ;
428 [label="node #428\navg_price_per_room <= 89.75\ngini = 0.434\nsamples = 22\nvalue = [7.0, 15.0]\nclass = Yes", fillcolor="#95cbf1"] ;
427 -> 428 ;
429 [label="node #429\ngini = 0.0\nsamples = 1\nvalue = [0, 1]\nclass = Yes", fillcolor="#399de5"] ;
428 -> 429 ;
430 [label="node #430\ngini = 0.444\nsamples = 21\nvalue = [7, 14]\nclass = Yes", fillcolor="#9ccef2"] ;
428 -> 430 ;
431 [label="node #431\ngini = 0.0\nsamples = 2\nvalue = [2, 0]\nclass = No", fillcolor="#e58139"] ;
427 -> 431 ;
432 [label="node #432\nlead_time <= 93.5\ngini = 0.157\nsamples = 35\nvalue = [32, 3]\nclass = No", fillcolor="#e78d4c"] ;
408 -> 432 ;
433 [label="node #433\nno_of_adults <= 2.5\ngini = 0.059\nsamples = 33\nvalue = [32, 1]\nclass = No", fillcolor="#e6853f"] ;
432 -> 433 ;
434 [label="node #434\ngini = 0.0\nsamples = 30\nvalue = [30, 0]\nclass = No", fillcolor="#e58139"] ;
433 -> 434 ;
435 [label="node #435\nlead_time <= 88.0\ngini = 0.444\nsamples = 3\nvalue = [2, 1]\nclass = No", fillcolor="#f2c09c"] ;
433 -> 435 ;
436 [label="node #436\ngini = 0.0\nsamples = 1\nvalue = [0, 1]\nclass = Yes", fillcolor="#399de5"] ;
435 -> 436 ;
437 [label="node #437\ngini = 0.0\nsamples = 2\nvalue = [2, 0]\nclass = No", fillcolor="#e58139"] ;
435 -> 437 ;
438 [label="node #438\ngini = 0.0\nsamples = 2\nvalue = [0, 2]\nclass = Yes", fillcolor="#399de5"] ;
432 -> 438 ;
439 [label="node #439\navg_price_per_room <= 75.07\ngini = 0.476\nsamples = 545\nvalue = [332, 213]\nclass = No", fillcolor="#f6d2b8"] ;
365 -> 439 ;
440 [label="node #440\navg_price_per_room <= 58.75\ngini = 0.303\nsamples = 172\nvalue = [140, 32]\nclass = No", fillcolor="#eb9e66"] ;
439 -> 440 ;
441 [label="node #441\ngini = 0.0\nsamples = 10\nvalue = [0, 10]\nclass = Yes", fillcolor="#399de5"] ;
440 -> 441 ;
442 [label="node #442\ntype_of_meal_plan <= 1.5\ngini = 0.235\nsamples = 162\nvalue = [140, 22]\nclass = No", fillcolor="#e99558"] ;
440 -> 442 ;
443 [label="node #443\nlead_time <= 106.0\ngini = 0.219\nsamples = 160\nvalue = [140, 20]\nclass = No", fillcolor="#e99355"] ;
442 -> 443 ;
444 [label="node #444\navg_price_per_room <= 64.375\ngini = 0.09\nsamples = 85\nvalue = [81, 4]\nclass = No", fillcolor="#e68743"] ;
443 -> 444 ;
445 [label="node #445\navg_price_per_room <= 61.625\ngini = 0.5\nsamples = 2\nvalue = [1, 1]\nclass = No", fillcolor="#ffffff"] ;
444 -> 445 ;
446 [label="node #446\ngini = 0.0\nsamples = 1\nvalue = [1, 0]\nclass = No", fillcolor="#e58139"] ;
445 -> 446 ;
447 [label="node #447\ngini = 0.0\nsamples = 1\nvalue = [0, 1]\nclass = Yes", fillcolor="#399de5"] ;
445 -> 447 ;
448 [label="node #448\nno_of_weekend_nights <= 0.5\ngini = 0.07\nsamples = 83\nvalue = [80, 3]\nclass = No", fillcolor="#e68640"] ;
444 -> 448 ;
449 [label="node #449\ngini = 0.0\nsamples = 58\nvalue = [58, 0]\nclass = No", fillcolor="#e58139"] ;
448 -> 449 ;
450 [label="node #450\nlead_time <= 101.5\ngini = 0.211\nsamples = 25\nvalue = [22, 3]\nclass = No", fillcolor="#e99254"] ;
448 -> 450 ;
451 [label="node #451\ngini = 0.0\nsamples = 22\nvalue = [22, 0]\nclass = No", fillcolor="#e58139"] ;
450 -> 451 ;
452 [label="node #452\ngini = 0.0\nsamples = 3\nvalue = [0, 3]\nclass = Yes", fillcolor="#399de5"] ;
450 -> 452 ;
453 [label="node #453\nlead_time <= 113.5\ngini = 0.336\nsamples = 75\nvalue = [59, 16]\nclass = No", fillcolor="#eca36f"] ;
443 -> 453 ;
454 [label="node #454\ngini = 0.0\nsamples = 11\nvalue = [0, 11]\nclass = Yes", fillcolor="#399de5"] ;
453 -> 454 ;
455 [label="node #455\nno_of_week_nights <= 0.5\ngini = 0.144\nsamples = 64\nvalue = [59, 5]\nclass = No", fillcolor="#e78c4a"] ;
453 -> 455 ;
456 [label="node #456\ngini = 0.0\nsamples = 1\nvalue = [0, 1]\nclass = Yes", fillcolor="#399de5"] ;
455 -> 456 ;
457 [label="node #457\navg_price_per_room <= 72.125\ngini = 0.119\nsamples = 63\nvalue = [59, 4]\nclass = No", fillcolor="#e78a46"] ;
455 -> 457 ;
458 [label="node #458\ngini = 0.0\nsamples = 40\nvalue = [40, 0]\nclass = No", fillcolor="#e58139"] ;
457 -> 458 ;
459 [label="node #459\nno_of_weekend_nights <= 1.5\ngini = 0.287\nsamples = 23\nvalue = [19, 4]\nclass = No", fillcolor="#ea9c63"] ;
457 -> 459 ;
460 [label="node #460\ngini = 0.0\nsamples = 18\nvalue = [18, 0]\nclass = No", fillcolor="#e58139"] ;
459 -> 460 ;
461 [label="node #461\navg_price_per_room <= 73.625\ngini = 0.32\nsamples = 5\nvalue = [1, 4]\nclass = Yes", fillcolor="#6ab6ec"] ;
459 -> 461 ;
462 [label="node #462\nno_of_week_nights <= 1.5\ngini = 0.5\nsamples = 2\nvalue = [1, 1]\nclass = No", fillcolor="#ffffff"] ;
461 -> 462 ;
463 [label="node #463\ngini = 0.0\nsamples = 1\nvalue = [1, 0]\nclass = No", fillcolor="#e58139"] ;
462 -> 463 ;
464 [label="node #464\ngini = 0.0\nsamples = 1\nvalue = [0, 1]\nclass = Yes", fillcolor="#399de5"] ;
462 -> 464 ;
465 [label="node #465\ngini = 0.0\nsamples = 3\nvalue = [0, 3]\nclass = Yes", fillcolor="#399de5"] ;
461 -> 465 ;
466 [label="node #466\ngini = 0.0\nsamples = 2\nvalue = [0, 2]\nclass = Yes", fillcolor="#399de5"] ;
442 -> 466 ;
467 [label="node #467\nlead_time <= 111.5\ngini = 0.5\nsamples = 373\nvalue = [192, 181]\nclass = No", fillcolor="#fef8f4"] ;
439 -> 467 ;
468 [label="node #468\navg_price_per_room <= 108.5\ngini = 0.471\nsamples = 305\nvalue = [189, 116]\nclass = No", fillcolor="#f5ceb3"] ;
467 -> 468 ;
469 [label="node #469\navg_price_per_room <= 91.225\ngini = 0.388\nsamples = 163\nvalue = [120.0, 43.0]\nclass = No", fillcolor="#eeae80"] ;
468 -> 469 ;
470 [label="node #470\navg_price_per_room <= 80.375\ngini = 0.493\nsamples = 59\nvalue = [26, 33]\nclass = Yes", fillcolor="#d5eaf9"] ;
469 -> 470 ;
471 [label="node #471\navg_price_per_room <= 79.61\ngini = 0.165\nsamples = 22\nvalue = [20, 2]\nclass = No", fillcolor="#e88e4d"] ;
470 -> 471 ;
472 [label="node #472\ngini = 0.0\nsamples = 2\nvalue = [0, 2]\nclass = Yes", fillcolor="#399de5"] ;
471 -> 472 ;
473 [label="node #473\ngini = 0.0\nsamples = 20\nvalue = [20, 0]\nclass = No", fillcolor="#e58139"] ;
471 -> 473 ;
474 [label="node #474\ntype_of_meal_plan <= 0.5\ngini = 0.272\nsamples = 37\nvalue = [6, 31]\nclass = Yes", fillcolor="#5fb0ea"] ;
470 -> 474 ;
475 [label="node #475\ngini = 0.0\nsamples = 2\nvalue = [2, 0]\nclass = No", fillcolor="#e58139"] ;
474 -> 475 ;
476 [label="node #476\navg_price_per_room <= 81.0\ngini = 0.202\nsamples = 35\nvalue = [4, 31]\nclass = Yes", fillcolor="#53aae8"] ;
474 -> 476 ;
477 [label="node #477\nlead_time <= 107.0\ngini = 0.32\nsamples = 10\nvalue = [2, 8]\nclass = Yes", fillcolor="#6ab6ec"] ;
476 -> 477 ;
478 [label="node #478\nlead_time <= 103.0\ngini = 0.219\nsamples = 8\nvalue = [1, 7]\nclass = Yes", fillcolor="#55abe9"] ;
477 -> 478 ;
479 [label="node #479\nlead_time <= 101.5\ngini = 0.32\nsamples = 5\nvalue = [1, 4]\nclass = Yes", fillcolor="#6ab6ec"] ;
478 -> 479 ;
480 [label="node #480\ngini = 0.0\nsamples = 2\nvalue = [0, 2]\nclass = Yes", fillcolor="#399de5"] ;
479 -> 480 ;
481 [label="node #481\ngini = 0.444\nsamples = 3\nvalue = [1, 2]\nclass = Yes", fillcolor="#9ccef2"] ;
479 -> 481 ;
482 [label="node #482\ngini = 0.0\nsamples = 3\nvalue = [0, 3]\nclass = Yes", fillcolor="#399de5"] ;
478 -> 482 ;
483 [label="node #483\ngini = 0.5\nsamples = 2\nvalue = [1, 1]\nclass = No", fillcolor="#ffffff"] ;
477 -> 483 ;
484 [label="node #484\ntype_of_meal_plan <= 1.5\ngini = 0.147\nsamples = 25\nvalue = [2, 23]\nclass = Yes", fillcolor="#4aa6e7"] ;
476 -> 484 ;
485 [label="node #485\ngini = 0.0\nsamples = 9\nvalue = [0, 9]\nclass = Yes", fillcolor="#399de5"] ;
484 -> 485 ;
486 [label="node #486\ngini = 0.219\nsamples = 16\nvalue = [2, 14]\nclass = Yes", fillcolor="#55abe9"] ;
484 -> 486 ;
487 [label="node #487\nno_of_weekend_nights <= 0.5\ngini = 0.174\nsamples = 104\nvalue = [94, 10]\nclass = No", fillcolor="#e88e4e"] ;
469 -> 487 ;
488 [label="node #488\nno_of_adults <= 2.5\ngini = 0.03\nsamples = 65\nvalue = [64, 1]\nclass = No", fillcolor="#e5833c"] ;
487 -> 488 ;
489 [label="node #489\ngini = 0.0\nsamples = 64\nvalue = [64, 0]\nclass = No", fillcolor="#e58139"] ;
488 -> 489 ;
490 [label="node #490\ngini = 0.0\nsamples = 1\nvalue = [0, 1]\nclass = Yes", fillcolor="#399de5"] ;
488 -> 490 ;
491 [label="node #491\nno_of_children <= 0.5\ngini = 0.355\nsamples = 39\nvalue = [30, 9]\nclass = No", fillcolor="#eda774"] ;
487 -> 491 ;
492 [label="node #492\navg_price_per_room <= 95.7\ngini = 0.313\nsamples = 36\nvalue = [29, 7]\nclass = No", fillcolor="#eb9f69"] ;
491 -> 492 ;
493 [label="node #493\nlead_time <= 106.5\ngini = 0.327\nsamples = 34\nvalue = [27, 7]\nclass = No", fillcolor="#eca26c"] ;
492 -> 493 ;
494 [label="node #494\ngini = 0.346\nsamples = 18\nvalue = [14, 4]\nclass = No", fillcolor="#eca572"] ;
493 -> 494 ;
495 [label="node #495\ngini = 0.305\nsamples = 16\nvalue = [13, 3]\nclass = No", fillcolor="#eb9e67"] ;
493 -> 495 ;
496 [label="node #496\ngini = 0.0\nsamples = 2\nvalue = [2, 0]\nclass = No", fillcolor="#e58139"] ;
492 -> 496 ;
497 [label="node #497\nno_of_week_nights <= 0.5\ngini = 0.444\nsamples = 3\nvalue = [1, 2]\nclass = Yes", fillcolor="#9ccef2"] ;
491 -> 497 ;
498 [label="node #498\ngini = 0.0\nsamples = 1\nvalue = [1, 0]\nclass = No", fillcolor="#e58139"] ;
497 -> 498 ;
499 [label="node #499\ngini = 0.0\nsamples = 2\nvalue = [0, 2]\nclass = Yes", fillcolor="#399de5"] ;
497 -> 499 ;
500 [label="node #500\navg_price_per_room <= 109.5\ngini = 0.5\nsamples = 142\nvalue = [69, 73]\nclass = Yes", fillcolor="#f4fafe"] ;
468 -> 500 ;
501 [label="node #501\ngini = 0.0\nsamples = 57\nvalue = [0, 57]\nclass = Yes", fillcolor="#399de5"] ;
500 -> 501 ;
502 [label="node #502\navg_price_per_room <= 116.53\ngini = 0.306\nsamples = 85\nvalue = [69, 16]\nclass = No", fillcolor="#eb9e67"] ;
500 -> 502 ;
503 [label="node #503\ngini = 0.0\nsamples = 56\nvalue = [56, 0]\nclass = No", fillcolor="#e58139"] ;
502 -> 503 ;
504 [label="node #504\nlead_time <= 110.5\ngini = 0.495\nsamples = 29\nvalue = [13, 16]\nclass = Yes", fillcolor="#daedfa"] ;
502 -> 504 ;
505 [label="node #505\navg_price_per_room <= 177.835\ngini = 0.291\nsamples = 17\nvalue = [3, 14]\nclass = Yes", fillcolor="#63b2eb"] ;
504 -> 505 ;
506 [label="node #506\nno_of_weekend_nights <= 1.5\ngini = 0.219\nsamples = 16\nvalue = [2, 14]\nclass = Yes", fillcolor="#55abe9"] ;
505 -> 506 ;
507 [label="node #507\nno_of_adults <= 1.5\ngini = 0.298\nsamples = 11\nvalue = [2, 9]\nclass = Yes", fillcolor="#65b3eb"] ;
506 -> 507 ;
508 [label="node #508\nno_of_week_nights <= 0.5\ngini = 0.18\nsamples = 10\nvalue = [1, 9]\nclass = Yes", fillcolor="#4fa8e8"] ;
507 -> 508 ;
509 [label="node #509\ngini = 0.32\nsamples = 5\nvalue = [1, 4]\nclass = Yes", fillcolor="#6ab6ec"] ;
508 -> 509 ;
510 [label="node #510\ngini = 0.0\nsamples = 5\nvalue = [0, 5]\nclass = Yes", fillcolor="#399de5"] ;
508 -> 510 ;
511 [label="node #511\ngini = 0.0\nsamples = 1\nvalue = [1, 0]\nclass = No", fillcolor="#e58139"] ;
507 -> 511 ;
512 [label="node #512\ngini = 0.0\nsamples = 5\nvalue = [0, 5]\nclass = Yes", fillcolor="#399de5"] ;
506 -> 512 ;
513 [label="node #513\ngini = 0.0\nsamples = 1\nvalue = [1, 0]\nclass = No", fillcolor="#e58139"] ;
505 -> 513 ;
514 [label="node #514\nno_of_week_nights <= 1.0\ngini = 0.278\nsamples = 12\nvalue = [10, 2]\nclass = No", fillcolor="#ea9a61"] ;
504 -> 514 ;
515 [label="node #515\ngini = 0.0\nsamples = 10\nvalue = [10, 0]\nclass = No", fillcolor="#e58139"] ;
514 -> 515 ;
516 [label="node #516\ngini = 0.0\nsamples = 2\nvalue = [0, 2]\nclass = Yes", fillcolor="#399de5"] ;
514 -> 516 ;
517 [label="node #517\nno_of_adults <= 2.5\ngini = 0.084\nsamples = 68\nvalue = [3, 65]\nclass = Yes", fillcolor="#42a2e6"] ;
467 -> 517 ;
518 [label="node #518\navg_price_per_room <= 98.0\ngini = 0.03\nsamples = 66\nvalue = [1, 65]\nclass = Yes", fillcolor="#3c9fe5"] ;
517 -> 518 ;
519 [label="node #519\ngini = 0.0\nsamples = 44\nvalue = [0, 44]\nclass = Yes", fillcolor="#399de5"] ;
518 -> 519 ;
520 [label="node #520\navg_price_per_room <= 110.0\ngini = 0.087\nsamples = 22\nvalue = [1, 21]\nclass = Yes", fillcolor="#42a2e6"] ;
518 -> 520 ;
521 [label="node #521\ngini = 0.095\nsamples = 20\nvalue = [1, 19]\nclass = Yes", fillcolor="#43a2e6"] ;
520 -> 521 ;
522 [label="node #522\ngini = 0.0\nsamples = 2\nvalue = [0, 2]\nclass = Yes", fillcolor="#399de5"] ;
520 -> 522 ;
523 [label="node #523\ngini = 0.0\nsamples = 2\nvalue = [2, 0]\nclass = No", fillcolor="#e58139"] ;
517 -> 523 ;
524 [label="node #524\navg_price_per_room <= 89.88\ngini = 0.368\nsamples = 457\nvalue = [111, 346]\nclass = Yes", fillcolor="#79bced"] ;
364 -> 524 ;
525 [label="node #525\ntype_of_meal_plan <= 0.5\ngini = 0.133\nsamples = 182\nvalue = [13, 169]\nclass = Yes", fillcolor="#48a5e7"] ;
524 -> 525 ;
526 [label="node #526\nno_of_weekend_nights <= 0.5\ngini = 0.5\nsamples = 4\nvalue = [2, 2]\nclass = No", fillcolor="#ffffff"] ;
525 -> 526 ;
527 [label="node #527\ngini = 0.0\nsamples = 2\nvalue = [2, 0]\nclass = No", fillcolor="#e58139"] ;
526 -> 527 ;
528 [label="node #528\ngini = 0.0\nsamples = 2\nvalue = [0, 2]\nclass = Yes", fillcolor="#399de5"] ;
526 -> 528 ;
529 [label="node #529\navg_price_per_room <= 81.85\ngini = 0.116\nsamples = 178\nvalue = [11, 167]\nclass = Yes", fillcolor="#46a3e7"] ;
525 -> 529 ;
530 [label="node #530\navg_price_per_room <= 64.375\ngini = 0.058\nsamples = 133\nvalue = [4, 129]\nclass = Yes", fillcolor="#3fa0e6"] ;
529 -> 530 ;
531 [label="node #531\navg_price_per_room <= 62.875\ngini = 0.298\nsamples = 11\nvalue = [2, 9]\nclass = Yes", fillcolor="#65b3eb"] ;
530 -> 531 ;
532 [label="node #532\navg_price_per_room <= 51.125\ngini = 0.18\nsamples = 10\nvalue = [1, 9]\nclass = Yes", fillcolor="#4fa8e8"] ;
531 -> 532 ;
533 [label="node #533\ngini = 0.0\nsamples = 5\nvalue = [0, 5]\nclass = Yes", fillcolor="#399de5"] ;
532 -> 533 ;
534 [label="node #534\nlead_time <= 122.0\ngini = 0.32\nsamples = 5\nvalue = [1, 4]\nclass = Yes", fillcolor="#6ab6ec"] ;
532 -> 534 ;
535 [label="node #535\ngini = 0.0\nsamples = 2\nvalue = [0, 2]\nclass = Yes", fillcolor="#399de5"] ;
534 -> 535 ;
536 [label="node #536\navg_price_per_room <= 57.25\ngini = 0.444\nsamples = 3\nvalue = [1, 2]\nclass = Yes", fillcolor="#9ccef2"] ;
534 -> 536 ;
537 [label="node #537\ngini = 0.0\nsamples = 1\nvalue = [1, 0]\nclass = No", fillcolor="#e58139"] ;
536 -> 537 ;
538 [label="node #538\ngini = 0.0\nsamples = 2\nvalue = [0, 2]\nclass = Yes", fillcolor="#399de5"] ;
536 -> 538 ;
539 [label="node #539\ngini = 0.0\nsamples = 1\nvalue = [1, 0]\nclass = No", fillcolor="#e58139"] ;
531 -> 539 ;
540 [label="node #540\navg_price_per_room <= 73.88\ngini = 0.032\nsamples = 122\nvalue = [2, 120]\nclass = Yes", fillcolor="#3c9fe5"] ;
530 -> 540 ;
541 [label="node #541\ngini = 0.0\nsamples = 90\nvalue = [0, 90]\nclass = Yes", fillcolor="#399de5"] ;
540 -> 541 ;
542 [label="node #542\navg_price_per_room <= 75.5\ngini = 0.117\nsamples = 32\nvalue = [2, 30]\nclass = Yes", fillcolor="#46a4e7"] ;
540 -> 542 ;
543 [label="node #543\nno_of_adults <= 1.5\ngini = 0.444\nsamples = 3\nvalue = [2, 1]\nclass = No", fillcolor="#f2c09c"] ;
542 -> 543 ;
544 [label="node #544\ngini = 0.0\nsamples = 1\nvalue = [0, 1]\nclass = Yes", fillcolor="#399de5"] ;
543 -> 544 ;
545 [label="node #545\ngini = 0.0\nsamples = 2\nvalue = [2, 0]\nclass = No", fillcolor="#e58139"] ;
543 -> 545 ;
546 [label="node #546\ngini = 0.0\nsamples = 29\nvalue = [0, 29]\nclass = Yes", fillcolor="#399de5"] ;
542 -> 546 ;
547 [label="node #547\nroom_type_reserved_Room_Type 1 <= 0.5\ngini = 0.263\nsamples = 45\nvalue = [7, 38]\nclass = Yes", fillcolor="#5dafea"] ;
529 -> 547 ;
548 [label="node #548\ngini = 0.0\nsamples = 1\nvalue = [1, 0]\nclass = No", fillcolor="#e58139"] ;
547 -> 548 ;
549 [label="node #549\nno_of_week_nights <= 1.5\ngini = 0.236\nsamples = 44\nvalue = [6, 38]\nclass = Yes", fillcolor="#58ace9"] ;
547 -> 549 ;
550 [label="node #550\ngini = 0.0\nsamples = 12\nvalue = [0, 12]\nclass = Yes", fillcolor="#399de5"] ;
549 -> 550 ;
551 [label="node #551\nlead_time <= 132.5\ngini = 0.305\nsamples = 32\nvalue = [6, 26]\nclass = Yes", fillcolor="#67b4eb"] ;
549 -> 551 ;
552 [label="node #552\navg_price_per_room <= 85.665\ngini = 0.278\nsamples = 30\nvalue = [5, 25]\nclass = Yes", fillcolor="#61b1ea"] ;
551 -> 552 ;
553 [label="node #553\nlead_time <= 120.5\ngini = 0.32\nsamples = 25\nvalue = [5, 20]\nclass = Yes", fillcolor="#6ab6ec"] ;
552 -> 553 ;
554 [label="node #554\ngini = 0.0\nsamples = 2\nvalue = [0, 2]\nclass = Yes", fillcolor="#399de5"] ;
553 -> 554 ;
555 [label="node #555\ngini = 0.34\nsamples = 23\nvalue = [5, 18]\nclass = Yes", fillcolor="#70b8ec"] ;
553 -> 555 ;
556 [label="node #556\ngini = 0.0\nsamples = 5\nvalue = [0, 5]\nclass = Yes", fillcolor="#399de5"] ;
552 -> 556 ;
557 [label="node #557\nlead_time <= 142.0\ngini = 0.5\nsamples = 2\nvalue = [1, 1]\nclass = No", fillcolor="#ffffff"] ;
551 -> 557 ;
558 [label="node #558\ngini = 0.0\nsamples = 1\nvalue = [1, 0]\nclass = No", fillcolor="#e58139"] ;
557 -> 558 ;
559 [label="node #559\ngini = 0.0\nsamples = 1\nvalue = [0, 1]\nclass = Yes", fillcolor="#399de5"] ;
557 -> 559 ;
560 [label="node #560\navg_price_per_room <= 95.95\ngini = 0.459\nsamples = 275\nvalue = [98, 177]\nclass = Yes", fillcolor="#a7d3f3"] ;
524 -> 560 ;
561 [label="node #561\navg_price_per_room <= 94.75\ngini = 0.495\nsamples = 163\nvalue = [90, 73]\nclass = No", fillcolor="#fae7da"] ;
560 -> 561 ;
562 [label="node #562\nlead_time <= 133.0\ngini = 0.5\nsamples = 143\nvalue = [70, 73]\nclass = Yes", fillcolor="#f7fbfe"] ;
561 -> 562 ;
563 [label="node #563\navg_price_per_room <= 90.475\ngini = 0.45\nsamples = 79\nvalue = [52, 27]\nclass = No", fillcolor="#f2c2a0"] ;
562 -> 563 ;
564 [label="node #564\ngini = 0.0\nsamples = 17\nvalue = [17, 0]\nclass = No", fillcolor="#e58139"] ;
563 -> 564 ;
565 [label="node #565\ntype_of_meal_plan <= 1.5\ngini = 0.492\nsamples = 62\nvalue = [35, 27]\nclass = No", fillcolor="#f9e2d2"] ;
563 -> 565 ;
566 [label="node #566\ngini = 0.0\nsamples = 5\nvalue = [0, 5]\nclass = Yes", fillcolor="#399de5"] ;
565 -> 566 ;
567 [label="node #567\nlead_time <= 127.5\ngini = 0.474\nsamples = 57\nvalue = [35, 22]\nclass = No", fillcolor="#f5d0b5"] ;
565 -> 567 ;
568 [label="node #568\nlead_time <= 120.5\ngini = 0.456\nsamples = 37\nvalue = [24, 13]\nclass = No", fillcolor="#f3c5a4"] ;
567 -> 568 ;
569 [label="node #569\ngini = 0.48\nsamples = 15\nvalue = [9, 6]\nclass = No", fillcolor="#f6d5bd"] ;
568 -> 569 ;
570 [label="node #570\ngini = 0.434\nsamples = 22\nvalue = [15.0, 7.0]\nclass = No", fillcolor="#f1bc95"] ;
568 -> 570 ;
571 [label="node #571\ngini = 0.495\nsamples = 20\nvalue = [11, 9]\nclass = No", fillcolor="#fae8db"] ;
567 -> 571 ;
572 [label="node #572\nlead_time <= 138.5\ngini = 0.404\nsamples = 64\nvalue = [18, 46]\nclass = Yes", fillcolor="#86c3ef"] ;
562 -> 572 ;
573 [label="node #573\nlead_time <= 136.5\ngini = 0.487\nsamples = 31\nvalue = [13, 18]\nclass = Yes", fillcolor="#c8e4f8"] ;
572 -> 573 ;
574 [label="node #574\ngini = 0.26\nsamples = 13\nvalue = [2, 11]\nclass = Yes", fillcolor="#5dafea"] ;
573 -> 574 ;
575 [label="node #575\ngini = 0.475\nsamples = 18\nvalue = [11, 7]\nclass = No", fillcolor="#f6d1b7"] ;
573 -> 575 ;
576 [label="node #576\navg_price_per_room <= 90.475\ngini = 0.257\nsamples = 33\nvalue = [5, 28]\nclass = Yes", fillcolor="#5caeea"] ;
572 -> 576 ;
577 [label="node #577\ngini = 0.355\nsamples = 13\nvalue = [3, 10]\nclass = Yes", fillcolor="#74baed"] ;
576 -> 577 ;
578 [label="node #578\ntype_of_meal_plan <= 1.5\ngini = 0.18\nsamples = 20\nvalue = [2, 18]\nclass = Yes", fillcolor="#4fa8e8"] ;
576 -> 578 ;
579 [label="node #579\ngini = 0.0\nsamples = 1\nvalue = [0, 1]\nclass = Yes", fillcolor="#399de5"] ;
578 -> 579 ;
580 [label="node #580\ngini = 0.188\nsamples = 19\nvalue = [2, 17]\nclass = Yes", fillcolor="#50a9e8"] ;
578 -> 580 ;
581 [label="node #581\ngini = 0.0\nsamples = 20\nvalue = [20, 0]\nclass = No", fillcolor="#e58139"] ;
561 -> 581 ;
582 [label="node #582\navg_price_per_room <= 115.03\ngini = 0.133\nsamples = 112\nvalue = [8, 104]\nclass = Yes", fillcolor="#48a5e7"] ;
560 -> 582 ;
583 [label="node #583\nno_of_children <= 0.5\ngini = 0.042\nsamples = 93\nvalue = [2, 91]\nclass = Yes", fillcolor="#3d9fe6"] ;
582 -> 583 ;
584 [label="node #584\navg_price_per_room <= 97.41\ngini = 0.022\nsamples = 92\nvalue = [1, 91]\nclass = Yes", fillcolor="#3b9ee5"] ;
583 -> 584 ;
585 [label="node #585\nno_of_week_nights <= 1.5\ngini = 0.32\nsamples = 5\nvalue = [1, 4]\nclass = Yes", fillcolor="#6ab6ec"] ;
584 -> 585 ;
586 [label="node #586\ngini = 0.5\nsamples = 2\nvalue = [1, 1]\nclass = No", fillcolor="#ffffff"] ;
585 -> 586 ;
587 [label="node #587\ngini = 0.0\nsamples = 3\nvalue = [0, 3]\nclass = Yes", fillcolor="#399de5"] ;
585 -> 587 ;
588 [label="node #588\ngini = 0.0\nsamples = 87\nvalue = [0, 87]\nclass = Yes", fillcolor="#399de5"] ;
584 -> 588 ;
589 [label="node #589\ngini = 0.0\nsamples = 1\nvalue = [1, 0]\nclass = No", fillcolor="#e58139"] ;
583 -> 589 ;
590 [label="node #590\nno_of_week_nights <= 1.5\ngini = 0.432\nsamples = 19\nvalue = [6, 13]\nclass = Yes", fillcolor="#94caf1"] ;
582 -> 590 ;
591 [label="node #591\nno_of_weekend_nights <= 1.5\ngini = 0.469\nsamples = 8\nvalue = [5, 3]\nclass = No", fillcolor="#f5cdb0"] ;
590 -> 591 ;
592 [label="node #592\navg_price_per_room <= 119.5\ngini = 0.278\nsamples = 6\nvalue = [5, 1]\nclass = No", fillcolor="#ea9a61"] ;
591 -> 592 ;
593 [label="node #593\ngini = 0.0\nsamples = 1\nvalue = [0, 1]\nclass = Yes", fillcolor="#399de5"] ;
592 -> 593 ;
594 [label="node #594\ngini = 0.0\nsamples = 5\nvalue = [5, 0]\nclass = No", fillcolor="#e58139"] ;
592 -> 594 ;
595 [label="node #595\ngini = 0.0\nsamples = 2\nvalue = [0, 2]\nclass = Yes", fillcolor="#399de5"] ;
591 -> 595 ;
596 [label="node #596\nroom_type_reserved_Room_Type 4 <= 0.5\ngini = 0.165\nsamples = 11\nvalue = [1, 10]\nclass = Yes", fillcolor="#4da7e8"] ;
590 -> 596 ;
597 [label="node #597\ngini = 0.0\nsamples = 10\nvalue = [0, 10]\nclass = Yes", fillcolor="#399de5"] ;
596 -> 597 ;
598 [label="node #598\ngini = 0.0\nsamples = 1\nvalue = [1, 0]\nclass = No", fillcolor="#e58139"] ;
596 -> 598 ;
599 [label="node #599\nlead_time <= 75.5\ngini = 0.195\nsamples = 612\nvalue = [67, 545]\nclass = Yes", fillcolor="#51a9e8"] ;
363 -> 599 ;
600 [label="node #600\nno_of_week_nights <= 3.5\ngini = 0.401\nsamples = 18\nvalue = [13, 5]\nclass = No", fillcolor="#efb185"] ;
599 -> 600 ;
601 [label="node #601\navg_price_per_room <= 77.5\ngini = 0.231\nsamples = 15\nvalue = [13, 2]\nclass = No", fillcolor="#e99457"] ;
600 -> 601 ;
602 [label="node #602\navg_price_per_room <= 72.5\ngini = 0.48\nsamples = 5\nvalue = [3, 2]\nclass = No", fillcolor="#f6d5bd"] ;
601 -> 602 ;
603 [label="node #603\ngini = 0.0\nsamples = 3\nvalue = [3, 0]\nclass = No", fillcolor="#e58139"] ;
602 -> 603 ;
604 [label="node #604\ngini = 0.0\nsamples = 2\nvalue = [0, 2]\nclass = Yes", fillcolor="#399de5"] ;
602 -> 604 ;
605 [label="node #605\ngini = 0.0\nsamples = 10\nvalue = [10, 0]\nclass = No", fillcolor="#e58139"] ;
601 -> 605 ;
606 [label="node #606\ngini = 0.0\nsamples = 3\nvalue = [0, 3]\nclass = Yes", fillcolor="#399de5"] ;
600 -> 606 ;
607 [label="node #607\navg_price_per_room <= 117.54\ngini = 0.165\nsamples = 594\nvalue = [54, 540]\nclass = Yes", fillcolor="#4da7e8"] ;
599 -> 607 ;
608 [label="node #608\nno_of_weekend_nights <= 0.5\ngini = 0.15\nsamples = 577\nvalue = [47.0, 530.0]\nclass = Yes", fillcolor="#4ba6e7"] ;
607 -> 608 ;
609 [label="node #609\navg_price_per_room <= 93.825\ngini = 0.09\nsamples = 316\nvalue = [15.0, 301.0]\nclass = Yes", fillcolor="#43a2e6"] ;
608 -> 609 ;
610 [label="node #610\navg_price_per_room <= 71.625\ngini = 0.053\nsamples = 257\nvalue = [7, 250]\nclass = Yes", fillcolor="#3fa0e6"] ;
609 -> 610 ;
611 [label="node #611\ngini = 0.0\nsamples = 112\nvalue = [0, 112]\nclass = Yes", fillcolor="#399de5"] ;
610 -> 611 ;
612 [label="node #612\navg_price_per_room <= 73.625\ngini = 0.092\nsamples = 145\nvalue = [7, 138]\nclass = Yes", fillcolor="#43a2e6"] ;
610 -> 612 ;
613 [label="node #613\nlead_time <= 99.5\ngini = 0.375\nsamples = 12\nvalue = [3, 9]\nclass = Yes", fillcolor="#7bbeee"] ;
612 -> 613 ;
614 [label="node #614\ngini = 0.0\nsamples = 3\nvalue = [0, 3]\nclass = Yes", fillcolor="#399de5"] ;
613 -> 614 ;
615 [label="node #615\nlead_time <= 129.0\ngini = 0.444\nsamples = 9\nvalue = [3, 6]\nclass = Yes", fillcolor="#9ccef2"] ;
613 -> 615 ;
616 [label="node #616\nlead_time <= 123.0\ngini = 0.5\nsamples = 6\nvalue = [3, 3]\nclass = No", fillcolor="#ffffff"] ;
615 -> 616 ;
617 [label="node #617\nno_of_week_nights <= 3.5\ngini = 0.48\nsamples = 5\nvalue = [2, 3]\nclass = Yes", fillcolor="#bddef6"] ;
616 -> 617 ;
618 [label="node #618\nlead_time <= 114.0\ngini = 0.444\nsamples = 3\nvalue = [1, 2]\nclass = Yes", fillcolor="#9ccef2"] ;
617 -> 618 ;
619 [label="node #619\ngini = 0.5\nsamples = 2\nvalue = [1, 1]\nclass = No", fillcolor="#ffffff"] ;
618 -> 619 ;
620 [label="node #620\ngini = 0.0\nsamples = 1\nvalue = [0, 1]\nclass = Yes", fillcolor="#399de5"] ;
618 -> 620 ;
621 [label="node #621\ngini = 0.5\nsamples = 2\nvalue = [1, 1]\nclass = No", fillcolor="#ffffff"] ;
617 -> 621 ;
622 [label="node #622\ngini = 0.0\nsamples = 1\nvalue = [1, 0]\nclass = No", fillcolor="#e58139"] ;
616 -> 622 ;
623 [label="node #623\ngini = 0.0\nsamples = 3\nvalue = [0, 3]\nclass = Yes", fillcolor="#399de5"] ;
615 -> 623 ;
624 [label="node #624\nlead_time <= 105.5\ngini = 0.058\nsamples = 133\nvalue = [4, 129]\nclass = Yes", fillcolor="#3fa0e6"] ;
612 -> 624 ;
625 [label="node #625\nlead_time <= 104.5\ngini = 0.106\nsamples = 71\nvalue = [4, 67]\nclass = Yes", fillcolor="#45a3e7"] ;
624 -> 625 ;
626 [label="node #626\nno_of_adults <= 1.5\ngini = 0.034\nsamples = 57\nvalue = [1, 56]\nclass = Yes", fillcolor="#3d9fe5"] ;
625 -> 626 ;
627 [label="node #627\nlead_time <= 88.0\ngini = 0.444\nsamples = 3\nvalue = [1, 2]\nclass = Yes", fillcolor="#9ccef2"] ;
626 -> 627 ;
628 [label="node #628\ngini = 0.0\nsamples = 1\nvalue = [0, 1]\nclass = Yes", fillcolor="#399de5"] ;
627 -> 628 ;
629 [label="node #629\nlead_time <= 97.5\ngini = 0.5\nsamples = 2\nvalue = [1, 1]\nclass = No", fillcolor="#ffffff"] ;
627 -> 629 ;
630 [label="node #630\ngini = 0.0\nsamples = 1\nvalue = [1, 0]\nclass = No", fillcolor="#e58139"] ;
629 -> 630 ;
631 [label="node #631\ngini = 0.0\nsamples = 1\nvalue = [0, 1]\nclass = Yes", fillcolor="#399de5"] ;
629 -> 631 ;
632 [label="node #632\ngini = 0.0\nsamples = 54\nvalue = [0, 54]\nclass = Yes", fillcolor="#399de5"] ;
626 -> 632 ;
633 [label="node #633\ngini = 0.337\nsamples = 14\nvalue = [3, 11]\nclass = Yes", fillcolor="#6fb8ec"] ;
625 -> 633 ;
634 [label="node #634\ngini = 0.0\nsamples = 62\nvalue = [0, 62]\nclass = Yes", fillcolor="#399de5"] ;
624 -> 634 ;
635 [label="node #635\nlead_time <= 145.0\ngini = 0.234\nsamples = 59\nvalue = [8, 51]\nclass = Yes", fillcolor="#58ace9"] ;
609 -> 635 ;
636 [label="node #636\navg_price_per_room <= 95.02\ngini = 0.163\nsamples = 56\nvalue = [5, 51]\nclass = Yes", fillcolor="#4ca7e8"] ;
635 -> 636 ;
637 [label="node #637\nlead_time <= 108.0\ngini = 0.444\nsamples = 3\nvalue = [2, 1]\nclass = No", fillcolor="#f2c09c"] ;
636 -> 637 ;
638 [label="node #638\ngini = 0.0\nsamples = 2\nvalue = [2, 0]\nclass = No", fillcolor="#e58139"] ;
637 -> 638 ;
639 [label="node #639\ngini = 0.0\nsamples = 1\nvalue = [0, 1]\nclass = Yes", fillcolor="#399de5"] ;
637 -> 639 ;
640 [label="node #640\nno_of_week_nights <= 3.5\ngini = 0.107\nsamples = 53\nvalue = [3, 50]\nclass = Yes", fillcolor="#45a3e7"] ;
636 -> 640 ;
641 [label="node #641\ngini = 0.0\nsamples = 40\nvalue = [0, 40]\nclass = Yes", fillcolor="#399de5"] ;
640 -> 641 ;
642 [label="node #642\navg_price_per_room <= 102.5\ngini = 0.355\nsamples = 13\nvalue = [3, 10]\nclass = Yes", fillcolor="#74baed"] ;
640 -> 642 ;
643 [label="node #643\ngini = 0.0\nsamples = 3\nvalue = [3, 0]\nclass = No", fillcolor="#e58139"] ;
642 -> 643 ;
644 [label="node #644\ngini = 0.0\nsamples = 10\nvalue = [0, 10]\nclass = Yes", fillcolor="#399de5"] ;
642 -> 644 ;
645 [label="node #645\ngini = 0.0\nsamples = 3\nvalue = [3, 0]\nclass = No", fillcolor="#e58139"] ;
635 -> 645 ;
646 [label="node #646\navg_price_per_room <= 72.505\ngini = 0.215\nsamples = 261\nvalue = [32, 229]\nclass = Yes", fillcolor="#55abe9"] ;
608 -> 646 ;
647 [label="node #647\nlead_time <= 145.5\ngini = 0.309\nsamples = 89\nvalue = [17, 72]\nclass = Yes", fillcolor="#68b4eb"] ;
646 -> 647 ;
648 [label="node #648\nlead_time <= 114.5\ngini = 0.394\nsamples = 63\nvalue = [17, 46]\nclass = Yes", fillcolor="#82c1ef"] ;
647 -> 648 ;
649 [label="node #649\navg_price_per_room <= 62.875\ngini = 0.219\nsamples = 40\nvalue = [5, 35]\nclass = Yes", fillcolor="#55abe9"] ;
648 -> 649 ;
650 [label="node #650\ngini = 0.0\nsamples = 21\nvalue = [0, 21]\nclass = Yes", fillcolor="#399de5"] ;
649 -> 650 ;
651 [label="node #651\nlead_time <= 105.5\ngini = 0.388\nsamples = 19\nvalue = [5, 14]\nclass = Yes", fillcolor="#80c0ee"] ;
649 -> 651 ;
652 [label="node #652\nlead_time <= 89.5\ngini = 0.473\nsamples = 13\nvalue = [5, 8]\nclass = Yes", fillcolor="#b5daf5"] ;
651 -> 652 ;
653 [label="node #653\ngini = 0.0\nsamples = 5\nvalue = [0, 5]\nclass = Yes", fillcolor="#399de5"] ;
652 -> 653 ;
654 [label="node #654\navg_price_per_room <= 69.7\ngini = 0.469\nsamples = 8\nvalue = [5, 3]\nclass = No", fillcolor="#f5cdb0"] ;
652 -> 654 ;
655 [label="node #655\nlead_time <= 93.5\ngini = 0.375\nsamples = 4\nvalue = [1, 3]\nclass = Yes", fillcolor="#7bbeee"] ;
654 -> 655 ;
656 [label="node #656\ngini = 0.0\nsamples = 1\nvalue = [1, 0]\nclass = No", fillcolor="#e58139"] ;
655 -> 656 ;
657 [label="node #657\ngini = 0.0\nsamples = 3\nvalue = [0, 3]\nclass = Yes", fillcolor="#399de5"] ;
655 -> 657 ;
658 [label="node #658\ngini = 0.0\nsamples = 4\nvalue = [4, 0]\nclass = No", fillcolor="#e58139"] ;
654 -> 658 ;
659 [label="node #659\ngini = 0.0\nsamples = 6\nvalue = [0, 6]\nclass = Yes", fillcolor="#399de5"] ;
651 -> 659 ;
660 [label="node #660\navg_price_per_room <= 59.75\ngini = 0.499\nsamples = 23\nvalue = [12, 11]\nclass = No", fillcolor="#fdf5ef"] ;
648 -> 660 ;
661 [label="node #661\ngini = 0.0\nsamples = 3\nvalue = [0, 3]\nclass = Yes", fillcolor="#399de5"] ;
660 -> 661 ;
662 [label="node #662\nlead_time <= 118.0\ngini = 0.48\nsamples = 20\nvalue = [12, 8]\nclass = No", fillcolor="#f6d5bd"] ;
660 -> 662 ;
663 [label="node #663\nno_of_adults <= 1.5\ngini = 0.245\nsamples = 7\nvalue = [6, 1]\nclass = No", fillcolor="#e9965a"] ;
662 -> 663 ;
664 [label="node #664\ngini = 0.0\nsamples = 4\nvalue = [4, 0]\nclass = No", fillcolor="#e58139"] ;
663 -> 664 ;
665 [label="node #665\nno_of_week_nights <= 3.5\ngini = 0.444\nsamples = 3\nvalue = [2, 1]\nclass = No", fillcolor="#f2c09c"] ;
663 -> 665 ;
666 [label="node #666\ngini = 0.0\nsamples = 1\nvalue = [0, 1]\nclass = Yes", fillcolor="#399de5"] ;
665 -> 666 ;
667 [label="node #667\ngini = 0.0\nsamples = 2\nvalue = [2, 0]\nclass = No", fillcolor="#e58139"] ;
665 -> 667 ;
668 [label="node #668\nlead_time <= 135.5\ngini = 0.497\nsamples = 13\nvalue = [6, 7]\nclass = Yes", fillcolor="#e3f1fb"] ;
662 -> 668 ;
669 [label="node #669\nlead_time <= 121.5\ngini = 0.245\nsamples = 7\nvalue = [1, 6]\nclass = Yes", fillcolor="#5aade9"] ;
668 -> 669 ;
670 [label="node #670\ntype_of_meal_plan <= 0.5\ngini = 0.444\nsamples = 3\nvalue = [1, 2]\nclass = Yes", fillcolor="#9ccef2"] ;
669 -> 670 ;
671 [label="node #671\ngini = 0.0\nsamples = 1\nvalue = [0, 1]\nclass = Yes", fillcolor="#399de5"] ;
670 -> 671 ;
672 [label="node #672\nlead_time <= 120.0\ngini = 0.5\nsamples = 2\nvalue = [1, 1]\nclass = No", fillcolor="#ffffff"] ;
670 -> 672 ;
673 [label="node #673\ngini = 0.0\nsamples = 1\nvalue = [0, 1]\nclass = Yes", fillcolor="#399de5"] ;
672 -> 673 ;
674 [label="node #674\ngini = 0.0\nsamples = 1\nvalue = [1, 0]\nclass = No", fillcolor="#e58139"] ;
672 -> 674 ;
675 [label="node #675\ngini = 0.0\nsamples = 4\nvalue = [0, 4]\nclass = Yes", fillcolor="#399de5"] ;
669 -> 675 ;
676 [label="node #676\nno_of_week_nights <= 4.5\ngini = 0.278\nsamples = 6\nvalue = [5, 1]\nclass = No", fillcolor="#ea9a61"] ;
668 -> 676 ;
677 [label="node #677\ngini = 0.0\nsamples = 4\nvalue = [4, 0]\nclass = No", fillcolor="#e58139"] ;
676 -> 677 ;
678 [label="node #678\nlead_time <= 141.5\ngini = 0.5\nsamples = 2\nvalue = [1, 1]\nclass = No", fillcolor="#ffffff"] ;
676 -> 678 ;
679 [label="node #679\ngini = 0.0\nsamples = 1\nvalue = [1, 0]\nclass = No", fillcolor="#e58139"] ;
678 -> 679 ;
680 [label="node #680\ngini = 0.0\nsamples = 1\nvalue = [0, 1]\nclass = Yes", fillcolor="#399de5"] ;
678 -> 680 ;
681 [label="node #681\ngini = 0.0\nsamples = 26\nvalue = [0, 26]\nclass = Yes", fillcolor="#399de5"] ;
647 -> 681 ;
682 [label="node #682\nlead_time <= 113.5\ngini = 0.159\nsamples = 172\nvalue = [15, 157]\nclass = Yes", fillcolor="#4ca6e7"] ;
646 -> 682 ;
683 [label="node #683\nlead_time <= 112.5\ngini = 0.259\nsamples = 85\nvalue = [13.0, 72.0]\nclass = Yes", fillcolor="#5dafea"] ;
682 -> 683 ;
684 [label="node #684\navg_price_per_room <= 93.825\ngini = 0.162\nsamples = 79\nvalue = [7, 72]\nclass = Yes", fillcolor="#4ca7e8"] ;
683 -> 684 ;
685 [label="node #685\navg_price_per_room <= 79.475\ngini = 0.105\nsamples = 54\nvalue = [3, 51]\nclass = Yes", fillcolor="#45a3e7"] ;
684 -> 685 ;
686 [label="node #686\nroom_type_reserved_Room_Type 4 <= 0.5\ngini = 0.231\nsamples = 15\nvalue = [2, 13]\nclass = Yes", fillcolor="#57ace9"] ;
685 -> 686 ;
687 [label="node #687\nno_of_adults <= 1.5\ngini = 0.133\nsamples = 14\nvalue = [1, 13]\nclass = Yes", fillcolor="#48a5e7"] ;
686 -> 687 ;
688 [label="node #688\nno_of_weekend_nights <= 1.5\ngini = 0.32\nsamples = 5\nvalue = [1, 4]\nclass = Yes", fillcolor="#6ab6ec"] ;
687 -> 688 ;
689 [label="node #689\ngini = 0.375\nsamples = 4\nvalue = [1, 3]\nclass = Yes", fillcolor="#7bbeee"] ;
688 -> 689 ;
690 [label="node #690\ngini = 0.0\nsamples = 1\nvalue = [0, 1]\nclass = Yes", fillcolor="#399de5"] ;
688 -> 690 ;
691 [label="node #691\ngini = 0.0\nsamples = 9\nvalue = [0, 9]\nclass = Yes", fillcolor="#399de5"] ;
687 -> 691 ;
692 [label="node #692\ngini = 0.0\nsamples = 1\nvalue = [1, 0]\nclass = No", fillcolor="#e58139"] ;
686 -> 692 ;
693 [label="node #693\nno_of_weekend_nights <= 1.5\ngini = 0.05\nsamples = 39\nvalue = [1, 38]\nclass = Yes", fillcolor="#3ea0e6"] ;
685 -> 693 ;
694 [label="node #694\nno_of_week_nights <= 3.5\ngini = 0.124\nsamples = 15\nvalue = [1, 14]\nclass = Yes", fillcolor="#47a4e7"] ;
693 -> 694 ;
695 [label="node #695\ngini = 0.0\nsamples = 10\nvalue = [0, 10]\nclass = Yes", fillcolor="#399de5"] ;
694 -> 695 ;
696 [label="node #696\navg_price_per_room <= 82.375\ngini = 0.32\nsamples = 5\nvalue = [1, 4]\nclass = Yes", fillcolor="#6ab6ec"] ;
694 -> 696 ;
697 [label="node #697\nlead_time <= 85.5\ngini = 0.5\nsamples = 2\nvalue = [1, 1]\nclass = No", fillcolor="#ffffff"] ;
696 -> 697 ;
698 [label="node #698\ngini = 0.0\nsamples = 1\nvalue = [0, 1]\nclass = Yes", fillcolor="#399de5"] ;
697 -> 698 ;
699 [label="node #699\ngini = 0.0\nsamples = 1\nvalue = [1, 0]\nclass = No", fillcolor="#e58139"] ;
697 -> 699 ;
700 [label="node #700\ngini = 0.0\nsamples = 3\nvalue = [0, 3]\nclass = Yes", fillcolor="#399de5"] ;
696 -> 700 ;
701 [label="node #701\ngini = 0.0\nsamples = 24\nvalue = [0, 24]\nclass = Yes", fillcolor="#399de5"] ;
693 -> 701 ;
702 [label="node #702\navg_price_per_room <= 97.325\ngini = 0.269\nsamples = 25\nvalue = [4, 21]\nclass = Yes", fillcolor="#5fb0ea"] ;
684 -> 702 ;
703 [label="node #703\nlead_time <= 80.5\ngini = 0.49\nsamples = 7\nvalue = [3, 4]\nclass = Yes", fillcolor="#cee6f8"] ;
702 -> 703 ;
704 [label="node #704\ngini = 0.0\nsamples = 2\nvalue = [0, 2]\nclass = Yes", fillcolor="#399de5"] ;
703 -> 704 ;
705 [label="node #705\nno_of_week_nights <= 4.5\ngini = 0.48\nsamples = 5\nvalue = [3, 2]\nclass = No", fillcolor="#f6d5bd"] ;
703 -> 705 ;
706 [label="node #706\nlead_time <= 104.5\ngini = 0.375\nsamples = 4\nvalue = [3, 1]\nclass = No", fillcolor="#eeab7b"] ;
705 -> 706 ;
707 [label="node #707\ngini = 0.0\nsamples = 3\nvalue = [3, 0]\nclass = No", fillcolor="#e58139"] ;
706 -> 707 ;
708 [label="node #708\ngini = 0.0\nsamples = 1\nvalue = [0, 1]\nclass = Yes", fillcolor="#399de5"] ;
706 -> 708 ;
709 [label="node #709\ngini = 0.0\nsamples = 1\nvalue = [0, 1]\nclass = Yes", fillcolor="#399de5"] ;
705 -> 709 ;
710 [label="node #710\nno_of_week_nights <= 4.5\ngini = 0.105\nsamples = 18\nvalue = [1, 17]\nclass = Yes", fillcolor="#45a3e7"] ;
702 -> 710 ;
711 [label="node #711\ngini = 0.0\nsamples = 15\nvalue = [0, 15]\nclass = Yes", fillcolor="#399de5"] ;
710 -> 711 ;
712 [label="node #712\ntype_of_meal_plan <= 1.5\ngini = 0.444\nsamples = 3\nvalue = [1, 2]\nclass = Yes", fillcolor="#9ccef2"] ;
710 -> 712 ;
713 [label="node #713\ngini = 0.0\nsamples = 2\nvalue = [0, 2]\nclass = Yes", fillcolor="#399de5"] ;
712 -> 713 ;
714 [label="node #714\ngini = 0.0\nsamples = 1\nvalue = [1, 0]\nclass = No", fillcolor="#e58139"] ;
712 -> 714 ;
715 [label="node #715\ngini = 0.0\nsamples = 6\nvalue = [6, 0]\nclass = No", fillcolor="#e58139"] ;
683 -> 715 ;
716 [label="node #716\nlead_time <= 126.0\ngini = 0.045\nsamples = 87\nvalue = [2, 85]\nclass = Yes", fillcolor="#3e9fe6"] ;
682 -> 716 ;
717 [label="node #717\ngini = 0.0\nsamples = 46\nvalue = [0, 46]\nclass = Yes", fillcolor="#399de5"] ;
716 -> 717 ;
718 [label="node #718\nlead_time <= 128.0\ngini = 0.093\nsamples = 41\nvalue = [2, 39]\nclass = Yes", fillcolor="#43a2e6"] ;
716 -> 718 ;
719 [label="node #719\nno_of_adults <= 1.5\ngini = 0.245\nsamples = 14\nvalue = [2, 12]\nclass = Yes", fillcolor="#5aade9"] ;
718 -> 719 ;
720 [label="node #720\ngini = 0.444\nsamples = 3\nvalue = [1, 2]\nclass = Yes", fillcolor="#9ccef2"] ;
719 -> 720 ;
721 [label="node #721\navg_price_per_room <= 88.18\ngini = 0.165\nsamples = 11\nvalue = [1, 10]\nclass = Yes", fillcolor="#4da7e8"] ;
719 -> 721 ;
722 [label="node #722\ngini = 0.0\nsamples = 2\nvalue = [0, 2]\nclass = Yes", fillcolor="#399de5"] ;
721 -> 722 ;
723 [label="node #723\ngini = 0.198\nsamples = 9\nvalue = [1, 8]\nclass = Yes", fillcolor="#52a9e8"] ;
721 -> 723 ;
724 [label="node #724\ngini = 0.0\nsamples = 27\nvalue = [0, 27]\nclass = Yes", fillcolor="#399de5"] ;
718 -> 724 ;
725 [label="node #725\ntype_of_meal_plan <= 1.5\ngini = 0.484\nsamples = 17\nvalue = [7, 10]\nclass = Yes", fillcolor="#c4e2f7"] ;
607 -> 725 ;
726 [label="node #726\nroom_type_reserved_Room_Type 4 <= 0.5\ngini = 0.346\nsamples = 9\nvalue = [7, 2]\nclass = No", fillcolor="#eca572"] ;
725 -> 726 ;
727 [label="node #727\nlead_time <= 116.0\ngini = 0.219\nsamples = 8\nvalue = [7, 1]\nclass = No", fillcolor="#e99355"] ;
726 -> 727 ;
728 [label="node #728\ngini = 0.0\nsamples = 5\nvalue = [5, 0]\nclass = No", fillcolor="#e58139"] ;
727 -> 728 ;
729 [label="node #729\nlead_time <= 133.0\ngini = 0.444\nsamples = 3\nvalue = [2, 1]\nclass = No", fillcolor="#f2c09c"] ;
727 -> 729 ;
730 [label="node #730\ngini = 0.0\nsamples = 1\nvalue = [0, 1]\nclass = Yes", fillcolor="#399de5"] ;
729 -> 730 ;
731 [label="node #731\ngini = 0.0\nsamples = 2\nvalue = [2, 0]\nclass = No", fillcolor="#e58139"] ;
729 -> 731 ;
732 [label="node #732\ngini = 0.0\nsamples = 1\nvalue = [0, 1]\nclass = Yes", fillcolor="#399de5"] ;
726 -> 732 ;
733 [label="node #733\ngini = 0.0\nsamples = 8\nvalue = [0, 8]\nclass = Yes", fillcolor="#399de5"] ;
725 -> 733 ;
734 [label="node #734\nlead_time <= 13.5\ngini = 0.498\nsamples = 6545\nvalue = [3472, 3073]\nclass = No", fillcolor="#fcf1e8"] ;
2 -> 734 ;
735 [label="node #735\nlead_time <= 2.5\ngini = 0.357\nsamples = 1763\nvalue = [410, 1353]\nclass = Yes", fillcolor="#75bbed"] ;
734 -> 735 ;
736 [label="node #736\navg_price_per_room <= 60.84\ngini = 0.201\nsamples = 785\nvalue = [89, 696]\nclass = Yes", fillcolor="#52aae8"] ;
735 -> 736 ;
737 [label="node #737\navg_price_per_room <= 59.97\ngini = 0.428\nsamples = 58\nvalue = [18, 40]\nclass = Yes", fillcolor="#92c9f1"] ;
736 -> 737 ;
738 [label="node #738\nno_of_weekend_nights <= 1.5\ngini = 0.091\nsamples = 42\nvalue = [2, 40]\nclass = Yes", fillcolor="#43a2e6"] ;
737 -> 738 ;
739 [label="node #739\ngini = 0.0\nsamples = 37\nvalue = [0, 37]\nclass = Yes", fillcolor="#399de5"] ;
738 -> 739 ;
740 [label="node #740\nno_of_adults <= 1.5\ngini = 0.48\nsamples = 5\nvalue = [2, 3]\nclass = Yes", fillcolor="#bddef6"] ;
738 -> 740 ;
741 [label="node #741\ngini = 0.0\nsamples = 2\nvalue = [0, 2]\nclass = Yes", fillcolor="#399de5"] ;
740 -> 741 ;
742 [label="node #742\navg_price_per_room <= 52.175\ngini = 0.444\nsamples = 3\nvalue = [2, 1]\nclass = No", fillcolor="#f2c09c"] ;
740 -> 742 ;
743 [label="node #743\ngini = 0.0\nsamples = 2\nvalue = [2, 0]\nclass = No", fillcolor="#e58139"] ;
742 -> 743 ;
744 [label="node #744\ngini = 0.0\nsamples = 1\nvalue = [0, 1]\nclass = Yes", fillcolor="#399de5"] ;
742 -> 744 ;
745 [label="node #745\ngini = 0.0\nsamples = 16\nvalue = [16, 0]\nclass = No", fillcolor="#e58139"] ;
737 -> 745 ;
746 [label="node #746\navg_price_per_room <= 204.0\ngini = 0.176\nsamples = 727\nvalue = [71, 656]\nclass = Yes", fillcolor="#4ea8e8"] ;
736 -> 746 ;
747 [label="node #747\nno_of_weekend_nights <= 0.5\ngini = 0.174\nsamples = 726\nvalue = [70, 656]\nclass = Yes", fillcolor="#4ea7e8"] ;
746 -> 747 ;
748 [label="node #748\navg_price_per_room <= 132.0\ngini = 0.146\nsamples = 440\nvalue = [35, 405]\nclass = Yes", fillcolor="#4aa5e7"] ;
747 -> 748 ;
749 [label="node #749\navg_price_per_room <= 118.425\ngini = 0.11\nsamples = 326\nvalue = [19, 307]\nclass = Yes", fillcolor="#45a3e7"] ;
748 -> 749 ;
750 [label="node #750\navg_price_per_room <= 118.045\ngini = 0.13\nsamples = 271\nvalue = [19, 252]\nclass = Yes", fillcolor="#48a4e7"] ;
749 -> 750 ;
751 [label="node #751\navg_price_per_room <= 74.9\ngini = 0.124\nsamples = 270\nvalue = [18, 252]\nclass = Yes", fillcolor="#47a4e7"] ;
750 -> 751 ;
752 [label="node #752\ngini = 0.0\nsamples = 36\nvalue = [0, 36]\nclass = Yes", fillcolor="#399de5"] ;
751 -> 752 ;
753 [label="node #753\navg_price_per_room <= 91.05\ngini = 0.142\nsamples = 234\nvalue = [18, 216]\nclass = Yes", fillcolor="#49a5e7"] ;
751 -> 753 ;
754 [label="node #754\navg_price_per_room <= 88.28\ngini = 0.186\nsamples = 125\nvalue = [13, 112]\nclass = Yes", fillcolor="#50a8e8"] ;
753 -> 754 ;
755 [label="node #755\navg_price_per_room <= 79.5\ngini = 0.145\nsamples = 89\nvalue = [7, 82]\nclass = Yes", fillcolor="#4aa5e7"] ;
754 -> 755 ;
756 [label="node #756\nlead_time <= 1.5\ngini = 0.213\nsamples = 33\nvalue = [4, 29]\nclass = Yes", fillcolor="#54abe9"] ;
755 -> 756 ;
757 [label="node #757\nno_of_adults <= 1.5\ngini = 0.175\nsamples = 31\nvalue = [3, 28]\nclass = Yes", fillcolor="#4ea8e8"] ;
756 -> 757 ;
758 [label="node #758\ngini = 0.0\nsamples = 8\nvalue = [0, 8]\nclass = Yes", fillcolor="#399de5"] ;
757 -> 758 ;
759 [label="node #759\nno_of_week_nights <= 1.5\ngini = 0.227\nsamples = 23\nvalue = [3, 20]\nclass = Yes", fillcolor="#57ace9"] ;
757 -> 759 ;
760 [label="node #760\ntype_of_meal_plan <= 0.5\ngini = 0.305\nsamples = 16\nvalue = [3, 13]\nclass = Yes", fillcolor="#67b4eb"] ;
759 -> 760 ;
761 [label="node #761\navg_price_per_room <= 77.0\ngini = 0.26\nsamples = 13\nvalue = [2, 11]\nclass = Yes", fillcolor="#5dafea"] ;
760 -> 761 ;
762 [label="node #762\ngini = 0.0\nsamples = 2\nvalue = [0, 2]\nclass = Yes", fillcolor="#399de5"] ;
761 -> 762 ;
763 [label="node #763\nlead_time <= 0.5\ngini = 0.298\nsamples = 11\nvalue = [2, 9]\nclass = Yes", fillcolor="#65b3eb"] ;
761 -> 763 ;
764 [label="node #764\ngini = 0.245\nsamples = 7\nvalue = [1, 6]\nclass = Yes", fillcolor="#5aade9"] ;
763 -> 764 ;
765 [label="node #765\ngini = 0.375\nsamples = 4\nvalue = [1, 3]\nclass = Yes", fillcolor="#7bbeee"] ;
763 -> 765 ;
766 [label="node #766\navg_price_per_room <= 77.0\ngini = 0.444\nsamples = 3\nvalue = [1, 2]\nclass = Yes", fillcolor="#9ccef2"] ;
760 -> 766 ;
767 [label="node #767\ngini = 0.5\nsamples = 2\nvalue = [1, 1]\nclass = No", fillcolor="#ffffff"] ;
766 -> 767 ;
768 [label="node #768\ngini = 0.0\nsamples = 1\nvalue = [0, 1]\nclass = Yes", fillcolor="#399de5"] ;
766 -> 768 ;
769 [label="node #769\ngini = 0.0\nsamples = 7\nvalue = [0, 7]\nclass = Yes", fillcolor="#399de5"] ;
759 -> 769 ;
770 [label="node #770\navg_price_per_room <= 77.0\ngini = 0.5\nsamples = 2\nvalue = [1, 1]\nclass = No", fillcolor="#ffffff"] ;
756 -> 770 ;
771 [label="node #771\ngini = 0.0\nsamples = 1\nvalue = [0, 1]\nclass = Yes", fillcolor="#399de5"] ;
770 -> 771 ;
772 [label="node #772\ngini = 0.0\nsamples = 1\nvalue = [1, 0]\nclass = No", fillcolor="#e58139"] ;
770 -> 772 ;
773 [label="node #773\ntype_of_meal_plan <= 0.5\ngini = 0.101\nsamples = 56\nvalue = [3, 53]\nclass = Yes", fillcolor="#44a3e6"] ;
755 -> 773 ;
774 [label="node #774\ngini = 0.0\nsamples = 28\nvalue = [0, 28]\nclass = Yes", fillcolor="#399de5"] ;
773 -> 774 ;
775 [label="node #775\navg_price_per_room <= 83.6\ngini = 0.191\nsamples = 28\nvalue = [3, 25]\nclass = Yes", fillcolor="#51a9e8"] ;
773 -> 775 ;
776 [label="node #776\ngini = 0.0\nsamples = 11\nvalue = [0, 11]\nclass = Yes", fillcolor="#399de5"] ;
775 -> 776 ;
777 [label="node #777\navg_price_per_room <= 84.5\ngini = 0.291\nsamples = 17\nvalue = [3, 14]\nclass = Yes", fillcolor="#63b2eb"] ;
